data = {"layers": [784, 100, 10], "weights": [[[0.0016380301299557837, 0.00614312235810011, 0.009907675703567601, 0.009084440542615214, -0.0012752664293968193, 0.004002843002086836, -0.0008467634234706675, -0.0003327799590067817, 0.0003731382257600504, -0.0015260581153799322, -0.0034894738825892047, -0.0002955881129971997, -0.001361757728688233, -0.0015089021857779934, -0.006671341206561294, 0.001608737002262008, -4.838847409000072e-05, 0.002139338033648324, -0.0005304586067073834, 0.003128164675830285, -0.0053771347525023655, -0.0028288200791676994, -0.002506870745984428, 0.0007454674318160807, 0.00131490456426269, -0.0016024271851665974, 0.0001111753878457265, 0.007182482763812403, 0.0030915756360021976, -0.00497227176403701, -0.0009086252875334022, 0.0020632441989167924, -0.0023091017273268516, 0.005189862550216995, -0.010508386738337695, -0.008837660023786142, -0.006984726765291747, -0.004129186807748126, -0.010405516649785512, -0.012424730976073833, -0.03847100806001155, -0.025620406493952117, -0.006406467983045816, -0.01636081317317834, -0.007229049702436307, -0.01390114754490134, -0.011165790921531448, -0.025734570487368994, -0.01683575292962306, -0.00641142339799678, -0.011757027447171747, 0.0005771927686771304, 0.0004166307904230805, 0.0020190413305570263, 0.0062994514191605224, -0.0016865418476313587, -0.0031371384412050675, 0.0032170725130408976, 0.004237285628463686, -0.0036307573272476223, -0.0025418059154256076, 0.004428037914486259, -0.009378038108451689, -0.012434307716537201, -0.02859330382272995, -0.02054986034991741, -0.040596486166756665, -0.06711953937343232, -0.07465570202269659, -0.06546674733594049, -0.07346470984003524, -0.09566657380682822, -0.10521946097280654, -0.0930338490828274, -0.08662674428954589, -0.0883624535259135, -0.06358800143991328, -0.05105288093378048, -0.03421700231120146, -0.02116916248091048, -0.004641000277608143, 0.0008027336705803346, -0.004945592039128806, 0.0010448740156749228, -0.0020583965282794407, -0.0012813998500848527, -0.0008764159551708486, -0.0021042348057065175, -0.007649757745312349, -0.014836807302219202, -0.02039199516739292, -0.018131990647211955, -0.07931483516729113, -0.09364391510410802, -0.04325782124119269, -0.08693061480822387, -0.1402792577168272, -0.09569704114055798, -0.08763978645582385, -0.17509161864957296, -0.057422452642181626, -0.07514650726355254, -0.21189899710403343, -0.17774079954240174, -0.08680554517077027, -0.06033591000382049, -0.04962400338503049, -0.03253606977565315, 0.004749722037409505, 0.01600199251055348, -0.0008563239112368202, 0.0010782229606783754, -0.0029727483208448584, -0.0022859080230170463, -0.0023825992435251237, 0.0008052854679903829, -0.018859693378299482, -0.008615323289085802, 0.021114721176280438, 0.007062190794843242, -0.08320486177114286, -0.0624087673226325, -0.08759383857725069, -0.010067222528268326, 0.03042948184620169, -0.0436120149036891, -0.10786303165542196, -0.0769714849205257, 0.019579131059851793, -0.017262723372894206, -0.10858036887117299, -0.10545929811980757, -0.018675884871582105, 0.05136402830473881, 0.08143843640088554, 0.08453335302924699, 0.08638671743193052, 0.039535971165183266, 0.00300039728474313, -0.0014609666723138911, 0.0016687374600965232, -0.002009738218734765, -0.0029074434548432373, -0.004297727005943445, -0.049040600137704504, -0.027229178318612466, -0.03919320118039012, -0.13646029866483056, -0.2029362280223058, -0.20096392244000166, -0.046799301439881744, -0.24421988334835204, -0.24825504050306935, -0.22287487693127137, -0.08194764544260161, -0.12403287708130337, -0.08116193356182218, -0.08382074563223545, -0.15270103621258024, -0.06660576830502161, 0.03361530584285734, 0.12371278794499316, 0.19269950079716994, 0.18114615806540676, 0.10855779635882214, 0.022537663690118545, -0.011599711588972744, -0.0005880870917233179, -0.003010596021543001, 0.0033483726994374486, -0.004993854199955081, -0.03908690529793557, -0.0708751319726896, -0.04200143769361348, -0.007621085283600616, -0.035657158030504156, -0.00961308936720837, -0.08223923412757053, -0.01430955395160128, -0.35428786028995213, -0.21376158653625588, -0.17657051049372208, -0.06363267112010933, 0.09964369533624146, 0.08495226490669132, 0.11687942609427067, -0.07478357195970568, 0.025759230103699127, 0.16981617430830132, 0.17572968992319754, 0.3143211895454698, 0.2683396090431105, 0.08186782592686452, 0.006615150127934097, -0.003961963580495916, 0.0017175608367622573, 0.0036666141197575198, -0.004021018567719318, 8.419476840697424e-05, -0.04013985007621071, -0.05374472453999548, 0.017556613478830797, 0.024989749289869904, -0.02482676882285677, 0.26609097090360195, 0.12743594418384716, 0.10084836440330797, 0.3192191080843622, 0.4126120443454416, 0.46872185976097924, 0.32817148399712637, 0.4186375123905414, 0.4228162316234398, 0.35445096146286, 0.21662773579562394, 0.408363598255518, 0.39211837403835814, 0.26220764191970974, 0.3853550663491911, 0.30321109453183104, 0.13328595905480364, 0.04793125784386907, -0.004099883572635987, 0.006981664827437447, 0.005966133358215163, 0.000134336711748233, 0.013193564778911274, 0.010075182467076362, -0.024319486088122434, 0.0358318477623711, -0.010936810412968609, 0.07716837204994681, 0.21642461323514828, 0.3713995340336839, 0.4531793062046671, 0.6169125912001525, 0.6287556920871159, 0.6353850524421422, 0.7790943453940663, 0.5681036495388558, 0.4760522108992528, 0.45444654150413255, 0.41783907738058257, 0.28254110760655754, 0.2931391001776208, 0.2182471148950529, 0.27428672748402083, 0.1702368047781143, 0.10470848939956277, 0.046191815550449856, -0.002085479050328789, 0.002847884181189012, -0.005835155727571785, -0.0054798805375311, 0.01935265792863496, 0.015617579682021503, -0.06424447587222815, -0.05300348553166426, 0.0004239325044630441, 0.02725814108472232, 0.10293862629951303, 0.3409728443000086, 0.4151239769587565, 0.20169450424148092, -0.013118986732939934, 0.041667994060017435, 0.022494489784530145, 0.1530049440076581, 0.06369508600269005, 0.020405686853512177, 0.15946993610868135, 0.20072301216570293, 0.20985779110280092, 0.08246037723423866, 0.054589810773661436, 0.11852919502242426, 0.052908741158301006, 0.0299543856113558, -0.0020091021116060903, -0.014006746304097872, -0.0030831991066637837, 0.00023643298929334794, -0.0035560405362057724, -0.02668786470630569, -0.05919557008616855, -0.10250499672850581, 0.017622719708113643, 0.07673145101969765, 0.0030271754151333895, -0.0685157257961285, -0.08317184859586521, -0.26973390740473285, -0.42555791406445526, -0.5605314465521984, -0.2673270557341054, -0.10940096125324753, -0.18750927800114636, -0.06113907378502046, -0.057389671495607204, 0.010116093689062598, -0.05204141207542427, 0.09195748283256636, 0.055541382292822274, -0.00914157370548128, -0.05892472275309521, -0.004079841809428376, -0.00031768723709337454, -0.007763546285875215, -0.00180054976748133, 0.0018005663706548885, -0.05899052320959447, -0.07256615048324516, -0.1831649225597338, -0.17400003443942458, 0.03674447210478046, -0.07169798598271603, -0.0783350341674968, -0.11556276518588432, -0.23602484667572, -0.3714602635161379, -0.33574043658764685, -0.46143512799463693, -0.33429322082673624, -0.18677672425084677, -0.10847585009070233, 0.001005123909905069, -0.24045841452026498, -0.1282661896469539, -0.09910323794320314, -0.05705572566385672, 0.014658002567581844, -0.12147825755268657, -0.0694885269341645, -0.0336804125455589, 0.009235592525567578, -0.0028629980039380086, -0.0011155866233013105, -0.003630351771046449, -0.016188725238133594, -0.05084107174304385, -0.11963463282662401, -0.06002357670974637, 0.1917165255298275, -0.09762196237093772, -0.16751084115775638, -0.1690806261979785, -0.07252370710962348, -0.20590537743948376, -0.09510183799319252, -0.10050893789425958, -0.15529629088557276, -0.009699245292740239, -0.04935384781110528, -0.03260024615349958, -0.12346492610790631, 0.06830585201876194, -0.07678094426100425, -0.08550882183844996, -0.08309605048714787, -0.12218034627007479, -0.020071768398156244, -0.08800498058813361, -0.024537804921524194, -0.011797264893267836, 0.004075587982357462, -0.003160696562247556, -0.010706681349683883, -0.04446134776944885, -0.08921663770663567, -0.030671166950274515, 0.02567083563700484, 0.07827896789534898, 0.03871152962152338, 0.04908181792282967, 0.050683275807940145, -0.10214644090766098, 0.023295151635572695, 0.18544412395305965, 0.07614559351424144, 0.0412517609542144, -0.14448028637673271, 0.1417356453517078, -0.007247367212812194, -0.04375563650901118, -0.018598857428514342, -0.14489946815292723, -0.20542166801352996, -0.24732956865317585, -0.15887224190170934, -0.03737041853482629, 0.0008036287117103669, 0.003177601944924026, -0.002594250556658028, -0.004291672664426575, -0.01496625178114088, -0.04499228644928982, 0.02188455876985702, 0.067245836167485, 0.07024051364598966, 0.20094260088197113, 0.14207391303355904, 0.19180697276558295, 0.09814923939960868, -0.014456299072289722, 0.15640130560141352, 0.2839363725198313, 0.1001815580613388, 0.03335092282882526, -0.0372043539971883, 0.0866499462132759, -0.13168316520653703, -0.08240369435374267, 0.012282790597373939, -0.05930917086581422, -0.2575599415340735, -0.22968168767621738, -0.08452853612940427, 0.015206151770541106, 0.015268165734822576, 0.00499978546286882, 0.004135653094817057, -0.005055871824711094, 0.0015174229380199805, -0.017891906750404918, 0.10863446316478025, 0.10894628790110952, 0.06545374566660539, 0.09966072925242157, 0.2933132720263795, 0.1774332970802021, 0.14232666741634722, 0.21777588477431076, 0.41520491232543205, 0.013537027915753785, -0.07290604156790115, 0.06072380657919574, 0.02988695841426541, 0.043739940563825304, -0.11728375362132248, -0.22036414562989096, -0.1403995717732576, -0.10478762807537874, -0.15940507140487356, -0.12987468239085198, -0.04221929152030575, 0.02464470183485018, 0.021070454915947893, 0.0029666996119523392, -0.0009097264873039259, -0.003635945108922847, -0.011180368006155277, -0.027520525632469654, -0.010108543856564711, 0.0037602205578977583, 0.013684198069746153, 0.09833808180653145, 0.10817294482645133, -0.05974318817036919, 0.023468100994277215, 0.17825465629345846, 0.29775838753621764, -0.030036067215919823, -0.07242002269737098, 0.08671970848695627, 0.006382776398186521, 0.008591137319213444, -0.1561864169768543, -0.17046959565016143, -0.07264438080586345, -0.20617406391915383, -0.07703961790467567, 0.07008144619845547, -0.007873818684516832, 0.03421538304515824, 0.013840566520451783, 7.512705655322238e-05, 0.0017206113604480667, 0.0035085894797332057, -0.0008642558187231921, -0.01959011593867039, 0.036660453129937834, -0.0037651817007504904, -0.23179837443763765, 0.01630204365170628, -0.030716971910921344, 0.029612874899663355, 0.06681572834528077, 0.10222275553939718, 0.1481344300168502, 0.03824806679056954, 0.08909951310824984, 0.026380415886980514, -0.04357147669586776, -0.05271866827919616, -0.1076841980787274, -0.06311489058933716, -0.03351113799989622, -0.07364528240322962, 0.04673801289140307, -0.004970401284552531, 0.005372676986688293, 0.02091962137446857, 0.019490374642641348, 0.0014405206897647432, -0.00037732942556482663, -0.00863337502874259, -0.003067397518500854, -0.004801441274542226, 0.09365290239153644, -0.03090604117274091, -0.028155620668673085, -0.04843904878649955, -0.05632434320659414, 0.021407934031953797, 0.16499078472474485, 0.13597647987186473, -0.06303079911197099, -0.1131440322606309, -0.102428950549635, -0.19308470064434818, -0.08718642641376703, -0.2145836900569425, -0.101786590806767, 0.006468939432178503, 0.046092038821291474, -0.020278515692725707, 0.02943256206902422, -0.02331419155407999, -0.01123416293003186, -0.008723035391725082, 0.0015134203343563392, 0.0070993016122513864, 0.005124831751908838, -0.011158979354478163, 0.0018697881700517436, 0.008002572891471568, 0.019172401202175227, 0.08149831003607816, 0.009293158314927689, 0.030668597745938518, 0.03145953162938127, 0.04574431124055055, 0.03957169326569432, -0.1275298345596162, -0.11394984827769977, -0.21862684405725866, -0.058280727482589896, -0.02774986493724561, -0.08571931094573632, -0.18375574972632294, -2.8740416159028346e-05, -0.015436521173903305, 0.0986284491470981, 0.035257223021297385, -0.002416227143868211, -0.029966418734097906, -0.02540036872562045, 0.0265982185882896, 0.0072856900870906845, -0.005117858366766207, -0.004769341934263477, 0.008322849548979014, 0.013924528996138144, -0.02530508519188992, 0.04079365733974173, 0.07960058965045556, 0.09106128379651249, 0.03125068122955446, 0.014392966879634242, -0.01740300951326434, -0.047051867900452314, 0.015839625093024293, 0.11233433639916478, -0.0539695650986647, -0.02879394470633671, -0.04301529298197282, 0.0248513307190487, -0.04926300980271858, -0.15363115151195075, 0.06686395048744559, 0.021250504122107366, -0.05010140119162389, 0.003070469411769826, 0.02160373542593429, 0.021870423606118208, 0.018962451251844648, 0.0032605363981792553, -0.0007673720553660475, 0.0034745949620070505, -0.00024660816114393624, 0.00450999660445701, 0.0319655966389019, 0.08051834657738867, 0.17634167922776114, 0.06374541718297987, 0.051280292231146586, -0.054460321261995986, -0.031177650926034164, -0.04799833424651854, 0.021012881875701536, 0.07680723491952769, -0.021150879580516445, -0.1269938049118801, -0.1507498612078732, -0.08684972580377606, -0.20358145020804483, -0.17065581432843907, 0.03635441895224933, -0.021621450611348802, 0.07308989974596469, 0.09333109130679718, 0.08064422477051394, 0.07043054066804011, 0.004031357899803889, 0.0019384851724208502, -0.0013437594644627778, 0.0007897248847729246, -0.003034614372019528, 0.004874532003441301, 0.015050996034297884, 0.035932171960307895, 0.10128832238522248, 0.07125641394089184, -0.019609152302815513, 0.01918100556614768, -0.10691245875471882, -0.04801166108594793, 0.06842885678491589, 0.04428930611538479, 0.11114465027391002, 0.037840409745721164, -0.12506016104631623, 0.11473856479141238, 0.04130334720672425, 0.06768482010711879, 0.1759969309292888, 0.06970988581856515, 0.15966632107318762, 0.08699187734077993, 0.09947260115866566, 0.07751275324996322, 0.006929235407313999, 0.00290138602782058, -0.003769904268084931, 0.001870990582264309, -0.003105867953370003, -0.0011460016941905796, 0.012801930668174193, 0.007221642160629868, -0.0023132298148619457, -0.02646396494296311, -0.01668830499453044, 0.06948006188471659, -0.014595489257972607, 0.0848753322297333, -0.0559178874435053, 0.07031380761499596, 0.17240919946980118, 0.12780364272154665, 0.20946872971850652, 0.24697601758560486, 0.1261704206884503, 0.17188385254035324, 0.07982836575552812, 0.06382644002412516, 0.11693510223527151, 0.07364920373366675, 0.06610557569905927, 0.021900415329822207, 0.00402110144550172, 0.005045338196757102, -0.0009130179540984955, -0.0017595915448906819, 0.005935669181932297, -0.00949603476333577, -0.008368163347236368, -0.016438815296749894, -0.06076922534070932, -0.09589606760650103, -0.08443783962354773, 0.02446254568854607, 0.2029988985684039, -0.03374052608709463, -0.1015800263268824, 0.07624502876482944, -0.013846942494613232, -0.08381618848872176, 0.028622194986883766, 0.02846541029569128, -0.03741948034639856, 0.07643397703194578, 0.004055572191500343, 0.06560361907617725, 0.07847755830237399, 0.10036730859058075, 0.03495640711445821, 0.0014621702382641973, -0.001977571153760455, -0.0016503915030782928, -0.004959922425729877, 0.001234824725149157, -0.0004772280090484459, 0.00473862077106526, 0.0015749500371375963, -0.006775536624182624, -0.03280181831953416, -0.04735808486625537, -0.05712414063415081, 0.008957336246221467, 0.08940057731844363, -0.026940576340098416, -0.030977907777410427, -0.036744566864084297, -0.0539148514434747, -0.15187572107328765, 0.07394503659831929, -0.10586345037087538, -0.08713157142604429, 0.04912349562081292, -0.07818014622929409, -0.033926500630975874, 0.006082690466726552, 0.03389729874592891, 0.03146124728677081, 0.009843503842335963, 0.0011979295182545685, -0.003323342835487414, -0.005564246428041742, -0.008089256688182014, 0.00584810270106815, -0.003665641146829314, -2.6532415258080088e-05, 0.0006204907395002896, -0.012814464203708973, -0.018820146599666975, -0.024699368201894983, -0.03196167747434822, -0.0357059180069155, -0.0961070035854369, -0.10092854956497314, -0.02861584688790784, -0.08222830515854972, -0.030874504685968567, 0.02511615034380106, -0.03379818616848967, -0.04257871454955832, 0.007072706146252453, -0.08341599298805105, -0.053627505507495364, -0.03953013960494894, -0.03360077408381975, -0.0009184190175471415, -0.0022643931651139667, 0.0018245258533345608, 0.005198508521855192, -0.002585730302311191, 0.002450011004699349, 0.0005154926734196897, -0.0007737538821507598, 0.001180562534666729, 0.0013150888927908723, 0.0036345630253343543, -0.0004036267735416288, -0.005947275142374448, -0.006923018064273199, -0.007378743809860116, -0.03134950095091327, -0.005967294955324297, 0.007679683818108307, -0.009758931869481844, -0.015166071268127114, 0.027942000543741657, -0.0254400925102121, -0.010762212658077521, 0.0006851503322052928, -0.007718196154702011, -0.01503185843946257, -0.04132389444363172, -0.04364110744510764, -0.0001527023655591879, 0.0016953421494289283, 0.004240214652098082, -0.005757136821097985, 0.0017231159890280885], [-0.004786011670811937, -0.0017640082076806275, -0.0009419097188579995, -1.900896299828677e-05, -0.002267051994809357, -0.005603175913393091, -0.003319118005225687, 0.003397049408421223, 0.001375308153026879, -0.0019690391552976464, 0.0031370082936206835, 0.0015160372097334479, -0.007177791262561714, 0.0031901204210882947, -0.0023350508151009906, 3.528544435175918e-05, -0.003390452418017127, -0.004163849695053002, -0.0029341369674898282, 0.0018219946109181797, -0.004480854733116496, -0.0024045851220137093, -0.0065146358690515455, -0.0030985297640027743, 0.001720247894969442, -0.003915865744786351, -0.003970210594637032, 0.002829886138849466, 0.004952401433896536, 0.0033731267743172043, 0.0004734839959396127, -0.0029675695202865037, 0.0006130381934369095, 0.00012882886529118947, -0.002623700568853397, -0.00020967244233940273, 0.003088107980845418, -0.004101672391584154, 0.004387911642344416, 0.0021948315589727556, 0.007509284473897933, -0.002888128547321245, 0.0005043240834545514, -0.007102598240730991, -0.0018318589302512406, 0.0008059395422417944, -0.00024176521596942104, -0.001910618783736134, -0.0007082157369679903, 0.0024634041502662736, -2.296082797916863e-05, 0.0022094161389878755, 0.001799985621930202, 0.0011463601490441892, -0.003353869049696129, 0.002695578195211617, 0.00030976030872158054, 0.002419624695093871, 0.003378239620388078, -0.005126123918071221, 0.00153506502411361, 0.0027605254506305014, -0.0004053604740529546, 0.0035114454407884545, 0.005370784773206678, 0.001105677654901827, 0.0019204714437995264, 0.001288294474074727, 0.005810327296894972, 0.004358085640045294, -0.010219691923942486, -0.01795761604195705, -0.006127476815307309, 0.0252483446417083, 0.03619742652147284, 0.028626952961555686, 0.014604247758405745, 0.013411052879464617, 0.01559211361567524, 0.00915732519235505, 0.0059605566036582385, -0.001103455696924994, 0.0005612239134644465, 0.0013520558538787654, 0.0005063955193675264, -0.00207497172921845, 0.0019100313594369648, 0.009730567202839414, -0.0007219963351445914, -0.002569887581492124, 0.0015089998207293517, 0.01260437826640165, 0.02735183418584505, 0.008081625958549004, 0.04224870646833902, 0.045700701191376106, 0.03513840474966532, 0.010939674454054315, 0.0540948353625321, 0.053213479554039905, 0.032937359364478634, 0.0633309043136412, 0.05493389859492976, 0.007019189429397186, 0.02753078490112659, 0.010888806619633712, -0.01752547279681959, -0.0034424723231510023, -0.002420255875918901, 0.009740182474298871, 0.0042094947288315605, -0.0001918002770545851, 0.0031802457465891863, -0.0021416811392350513, -0.002933286892255291, 0.003483129245142809, 0.0045467038848413036, 0.0045990017399900555, 0.02289216434693721, 0.041632632882217836, 0.04350554909771035, 0.06313133569193964, 0.08398217251943421, 0.0581913917762101, 0.008059956384016666, 0.02710791167100887, 0.12989338230411973, 0.1992979995190634, 0.17110955441472195, 0.11889040886461093, 0.11632690771315676, 0.11858458034334785, 0.06971228805920633, -0.03737985384569638, -0.0235416882430456, 0.007110433175452917, 0.01306640963643932, 0.01191378248010917, 0.0011693701499936695, 2.8334773274618617e-05, -0.007135787425681916, 0.005489382433323375, -0.008780620567115262, 0.0027255328770051674, 0.0016469740590988103, 0.017145150661244554, 0.07098202394403866, 0.07107353632426566, -0.07431870507663514, -0.01472954866133426, 0.020954665794099204, 0.023862573158711087, -0.0511798042964187, -0.03300308916239142, 0.055318932848015166, 0.10225401509204435, 0.017440293846885897, -0.010467904622370992, 0.038649298141897694, 0.22191712501155816, 0.25044121424956095, 0.015715634059732014, -0.006789237091160241, -0.018238232900946193, 0.004298013340710521, 0.003574302473155549, 0.009926588540466522, -0.002761864522894675, 0.00307951364120989, -0.005214454621436972, 0.0006289520585250763, -0.022036774021697878, -0.005320123664492666, 0.031519299087938886, 0.054268001712930294, 0.10692633727244517, 0.12704985064807572, 0.11015201275760854, 0.12903062679174565, 0.1717988589365739, 0.02102945575951957, -0.11233084089955502, -0.10949423748018308, 0.003293128839788145, 0.1194521735261155, 0.13131280595071002, 0.03105522605996643, -0.00046225318881529666, 0.10145779852112416, -0.034883743820621045, -0.09629170768219349, -0.011343644063174558, 0.0171218822365378, 0.013487621092922201, 0.009188514389242923, 0.002595109560544041, -0.004228292839066121, -0.002593681737699646, -0.009253605191071197, -0.03607119653643118, -0.04669493575114087, 0.00944112659771005, 0.03283543750804209, 0.05417885349040375, 0.2492855536239072, 0.08538878104961944, 0.10833932994873016, 0.20312073691439111, 0.07177450386850058, -0.015773723084477893, -0.011548674351429844, 0.018535354511785056, 0.10705432871343182, 0.1828378843934661, 0.11040624226752271, 0.037311357629624384, -0.05408516707370149, -0.06406949839504947, -0.07794132701525032, -0.062149995020774756, -0.008919349572516852, 0.025168765373053934, -0.0038743932838338196, 0.001844999163534432, 0.0018936088229573524, -0.000960033058275824, -0.011445661997629504, -0.057303084970099595, -0.1318771128036038, -0.11445313349920262, -0.13102441533395354, -0.0794865166869536, 0.10551851052521836, 0.12527395192224827, 0.1600389625502735, 0.17629448570365452, -0.04451933030769496, 0.007960927195786697, -0.06049071474559097, 0.08636350301831866, 0.18329416880138955, 0.1257527999691374, 0.07570392771117046, 0.02884417016171782, -0.01653806122854862, 0.09610945580115969, 0.04730320744028693, -0.0648505392981149, 0.06377677916813476, 0.06710254848264263, 0.00424080579566285, -0.0013367976299556925, -0.00383999901278215, -0.006585279262309537, -0.03475089734655705, -0.0967787625119735, -0.16717250615914922, -0.1541920191148141, -0.14882227624509786, -0.07580205168700495, -0.009422821615999619, 0.026887863190845723, 0.12994489376444823, 0.05010424450665343, 0.017355283027782123, 0.002739131335503035, -0.10331565896408246, -0.01526795692835055, 0.1242646552283405, 0.097824231598497, 0.07941066923765458, -0.009157778734336663, 0.0562690261832574, 0.07580212992638713, 0.06424363590346223, 0.02211244542047642, 0.14044190240179358, 0.09450582092512413, 0.019285892463420766, -0.0032784421072919448, -0.000297755078094314, -0.000407714214580342, -0.03960022939137198, -0.03630301446633323, -0.07080650992318678, -0.06595096093458092, -0.1056028793322298, -0.11961247878912847, -0.1348720499511114, -0.19283000194301816, -0.07041684647250995, 0.06932659374889076, 0.0983203695800364, -0.16628601825190503, -0.27570593576961583, -0.2652748594112488, 0.0826759029876819, 0.10815596378138366, -0.05521611367037223, -0.02725287968945336, 0.05525654848915745, 0.024565796139237046, 0.04683537430474397, 0.15765234467265185, 0.17704567503604413, 0.12035193445319721, 0.019256864021856106, -0.004430675104958779, 0.0008544202181749332, -0.00983901383317712, -0.05095221453754398, -0.05771334213796939, -0.08950846520210287, -0.05187409275550186, -0.039789483479895804, -0.09088553660211991, -0.09516514992329847, -0.12023085572446778, 0.039018799012388375, 0.16767291479805804, 0.052761205602486407, -0.23302783469694235, -0.40566092792339586, -0.2390739611647645, 0.19487784889095242, 0.1915446449670319, -0.05085150515174591, -0.000292521554585059, -0.008595864372187872, 0.02610835327010649, 0.002317710423509925, 0.08128087158779705, 0.14832029030526245, 0.0667305877023301, 0.010045295431866882, -0.0010198064265114811, 0.0007362580160351539, -0.011858258088790555, -0.045829527117826306, -0.0723859490781771, -0.047524012335648735, 0.03662272917858511, 0.06949233622084529, 0.01737536004996935, -0.08319199129903863, -0.05617772391417551, 0.15582310282590092, 0.17879612255235608, -0.001620070934251343, -0.20517455563529977, -0.2575965126100765, -0.28830074942415984, 0.009575612515930462, -0.027844949534214656, -0.06737237233369159, -0.05469312848101994, 0.032939959961620816, -0.048318902324388915, -0.08557884855853481, 0.05743219364770491, 0.05363566987032288, 0.012656739676379824, -0.0016836023503970948, -0.0006824599068421193, 0.0005340669241563617, 0.005564847478050361, -0.029872677457786757, -0.06532043081455888, -0.04094109221311955, -0.0012252147075175824, 0.08055019273504925, 0.12271835022255727, 0.1299816850579101, 0.07671202485975874, 0.04184173315879428, -0.01452211377727751, -0.08714128176790399, -0.2124684836220156, -0.31364393410846075, -0.3003408076197589, -0.08323667991583444, 0.031022719187328726, -0.12332048681299075, -0.05494823324798701, -0.06500030943084059, -0.15768299228530197, -0.11930284436330243, -0.01259376906761822, 0.016621916465936512, 0.0020993246257837287, -0.01250780380090185, -0.002889091864907944, 0.003075495576272958, -0.00201292176200277, -0.01646811094536828, -0.026565054436852212, 0.023424722710519562, 0.014431488043464063, 0.05033617469976537, 0.1221713047925361, 0.17847372819984617, 0.2732247114281981, 0.17510346536636917, -0.011812761735602162, -0.22591492178401526, -0.2342910812801612, -0.311008832941795, -0.08305574381931533, 0.12037598761517156, 0.07081666033550553, -0.062025970404789764, -0.17727664555125597, -0.1765575867220272, -0.2108345196160884, -0.138852248100504, -0.11954005745899204, -0.018876155783115207, 0.006155931307879253, -0.009304044519569732, -0.0014584593858073416, -0.0021212647216435985, 0.005091166972426081, 0.0011024484788059391, -0.003993836591230861, 0.10784509727854086, 0.02311638522784555, -0.009796381604592539, 0.2020497043788789, 0.27968126930464754, 0.12189259623500878, 0.004944109828955896, -0.20048491957599987, -0.20149695320923222, -0.32235000312509476, -0.36008478138155764, -0.08453636094340945, 0.19149532571213224, 0.07153644589693041, -0.06656877351065975, -0.17497036158817916, -0.2348294206562031, -0.15816014045580082, -0.16756650685531746, -0.14124585067717763, -0.013703634744823778, 0.02141637985900735, -0.019138516364993953, -0.0067294522994364725, -0.004689595136649422, 0.0005198450638377246, -0.0017308359322474036, 0.02292319414134372, 0.03570489257767134, 0.035164196068090715, 0.09721882171457893, 0.22642292316870868, 0.1336238149518467, -0.11818372054054002, -0.14681093616262922, -0.17092384925693113, -0.19390851721754637, -0.4032616633276609, -0.26481803026097006, 0.13784793280531732, 0.10034609480556995, 0.003179631257785103, -0.11733543921756967, -0.1262508032404699, -0.1533565120935892, -0.10797299725894748, -0.09388029137179582, -0.07070628889520508, -0.060201035310548455, 0.022866868854219985, -0.017972525547368844, -0.010274803390869855, -0.002195979424560628, 0.0019265635529921966, 0.0011216465823562915, 0.04520665655339658, 0.008879027809566191, 0.050470675240682675, 0.14845865573442793, 0.17833196669191273, 0.06882049600459735, -0.10275119040342, -0.12330896099051392, -0.09963603589268852, -0.1823695898086106, -0.1523937819155376, -0.020290946652635894, 0.2427879750944812, 0.2765315535343293, 0.07098376215748751, -0.14866272912231548, 0.005553102845486691, -0.130302287917459, -0.10933361506788083, -0.1101110611997376, -0.09858069568194525, -0.1643320629174596, -0.07493139097912781, -0.02222910851353065, 0.0021390619282020636, -0.004175306630829694, 0.002968378352653785, 0.009266214703970712, 0.04725155860487322, 0.01574579430206049, 0.09252625146914194, 0.26209570370139307, 0.03651914587092339, -0.0585423000375566, -0.18350208583344385, -0.061735861865896406, -0.061575667351011484, -0.13676006048442277, -0.07241130245699255, 0.1447737470255259, 0.20193040830086154, 0.20109662360874733, 0.07881755726627722, 0.0748300561307052, 0.08628033092142305, 0.07253365291316254, 0.1021176211356827, 0.11024245001726946, 0.04415928675647631, -0.054296437763271636, -0.029350167019587776, -0.008737022945226788, -7.781535208151825e-05, -0.0004637276316121835, 0.0006061650409194753, 0.00010533880029743946, 0.03818800237625467, 0.07932235433265859, 0.17384295905504116, 0.17897245070060455, 0.033105188049050986, -0.07805188808309041, -0.0855858347253935, -0.048564248322132304, -0.004356956994274786, -0.027314100013450287, 0.009188573850340467, 0.27533644221808845, 0.2634688887060537, 0.09994439111263334, 0.22402102704341378, 0.3375390930144735, 0.25314117540446424, 0.26588809256719464, 0.28220753325804626, 0.2655630112981942, 0.13379878221575495, 0.03596748388034525, 0.009809189651860551, 0.0009779289774206226, -0.0024923044275344777, -0.0070398790815004685, 0.0018034394530620135, 0.007955731224784804, 0.02395838056751013, 0.09055544831364476, 0.14347929672632942, 0.18207710168321223, 0.047440206067330085, 0.0008521767316366372, -0.06668918019477353, -0.13593131058727886, -0.004492044304213216, -0.03369051491087161, 0.1305064523428755, 0.24523886938076825, 0.14624984405234817, 0.07772254688044727, 0.24659907265005007, 0.24335131680756056, 0.23369259023921268, 0.235424532258207, 0.2536837243997023, 0.24938886745501984, 0.1492269149735665, 0.037639663781628606, 0.03353155466582266, 0.006759548112260692, -0.002173789537117117, -0.00038855992746739576, 0.0007935079284436576, 0.003122200896130055, 0.015494847993403801, 0.0713529861410082, 0.052818213690915515, 0.0742689765963932, 0.06278142944302867, -0.0396423327019606, -0.1325611163052872, -0.13057562120046565, 0.06325315786732819, 0.017190707594288257, 0.19796486261990381, 0.10645327196217824, 0.04498900187417533, 0.006796131360579074, 0.17527705130717744, 0.17408942701078417, 0.16947802062606546, 0.2137938830042197, 0.17431262139633913, 0.19069618468549074, 0.11625450011851256, 0.04626273597398567, 0.03794544354232066, -0.0020307490428012795, -5.2077986702640684e-05, -0.0009233439670026494, 0.0030786413372012713, -0.001766701025724192, 0.03743694897867007, 0.05269098376377889, -0.016552788809682768, -0.010011830682841403, -0.013674785777507036, -0.029497371892147798, -0.08012156462851647, -0.17112925083796676, 0.04600740828611593, -0.061745579068886156, 0.23918514437656405, 0.046480505560354095, 0.012222504587989551, -0.14509107436273003, -0.01580969418004148, 0.04291593370394536, 0.0016497843173618005, 0.056179066034637605, 0.03792630069461178, 0.1204188468237725, 0.10531617790129073, 0.046865941589599384, 0.031273360932324856, 0.006308649768972159, -0.0007721744366038929, -0.00013639890374135544, 0.001439650201406556, 0.0018591674087358853, 0.06418711592623275, 0.032801316703536504, 0.0430148159136279, -0.02190659304025815, -0.010549167487963076, 0.10433508310435902, -0.04563257260694868, 0.020179064474242784, -0.1054903560083288, -0.07544726627877926, 0.04328639140402268, -0.04683187034417778, -0.09974218216671579, -0.13150957229843674, -0.07891211408099115, -0.0011447734605174189, -0.04677985514395298, 0.002344272139582289, 0.025017241956794847, 0.06732427400219457, 0.08046491431409723, 0.04220859192804833, 0.011786240233567018, -0.0018187215108231626, -0.0022756899429950345, 0.002767326978463566, -0.006097862764351376, 0.002139205772819996, 0.05899477946357596, 0.013821845044608441, -0.02095747088166883, 0.03428605682895267, 0.07575434810728147, 0.13003431041790084, 0.13076586074383367, 0.04252932496518238, -0.012117442080028327, 0.13360877091428097, -0.003278192586560608, -0.04252037588920925, -0.039601431378532934, 0.0889928645021586, 0.05187552188944969, -0.008513083395255151, -0.016823726540348014, 0.03217382745786248, 0.025164283246935024, 0.014092727640196692, 0.059857950702596606, 0.015429178633184501, 0.000295029738826282, -0.0021990991281747177, -0.005123720856621616, 0.005529656452685748, 0.0021072763074476905, 0.00010140419461775611, -0.009365002871212157, -0.06269365156315469, -0.034848706498380504, 0.018650313708131, 0.06511346229258945, 0.09156679900247469, 0.03640719619625897, -0.0023904571410487863, 0.12234026648464902, 0.22472257167283094, 0.1654974680981994, 0.12610489986159243, 0.062468189140313796, 0.1394782694050078, 0.10082894317956728, 0.029404028849480405, 0.08235650850339597, 0.0690533294542285, 0.02747009466392145, 0.010298308368179729, 0.012152245833739778, 0.006120102119120192, -0.002338615855252188, -0.0009014216582454384, -0.0001750345449596187, 0.0015989397548343948, 0.004040964474854177, 0.0007124201315317621, 0.002532803217428693, 0.016179456006017313, 0.04107333710471418, 0.027470809236362546, -0.0065985358942726455, 0.00805150182373943, 0.010240524366264667, -0.013419088217745734, 0.05833972148122355, 0.11042726751467434, 0.1194793254739371, 0.10994018515685816, 0.04526099415020885, 0.07134517006256821, 0.06120516912263509, 0.02217765133312276, 0.0011288556627186601, 0.016232479801755916, 0.006101609852966286, -0.014594900486397146, 0.004967154617261265, 0.0012809117804969802, 0.005999033731881534, 0.003050643408013406, -0.0014819489081829434, 0.004237625190907898, 0.004405574390708096, -0.000693624499174936, 0.0006774903921440267, 0.0023909408019898173, 0.004828937428156696, 0.00287962536978876, 0.00967254506458511, 0.010842531588369151, 0.0061798837024927816, 0.0009954559770994598, 0.0026892379956071737, 0.004348627364840176, -0.004936511967224562, -0.014263413747055758, -0.0061117234720125925, -0.012091495756019381, -0.020583071733759985, -0.017090970363676204, -0.009083620623765129, -0.0036840923218544332, -0.019125229751166047, -0.01468582372411091, -0.0028835577705786405, 0.006442667133115381, 0.0008933005882681582, 0.00274545192885767, 0.00507288714015994], [-0.00284898501718016, -0.001017998891179588, 0.0022854259620206066, 0.0027999491018494155, -0.004255745080435234, -0.004223339975547914, 0.001973681807237818, -0.0013510597233157382, -0.0005671133568494553, 0.0015346569222995051, -0.002710527693503875, 0.0006467428274292718, 0.00020702471043420223, -0.007431912809842673, -0.0033474333182614596, -0.000992873330712047, 0.0009197246564162594, 0.0009523388117702919, 0.0016782587819326187, 0.00023733794144956526, 0.00406975657765767, -0.0026041017567557034, 3.560751281258928e-05, -0.00023757205043798852, -0.0024302463004525145, -0.005344213881723592, 0.001253516488901393, 0.00409389481333496, 0.000858970650787953, -0.0026150224026123053, 0.005054179046086784, -0.0009790290488383563, 0.0002309561056402886, -0.003725024254798251, 0.004268734176277019, 0.002631506168539301, 0.0007875161116200363, -0.0015063762492714, 0.0017504541824788712, 0.0028462433918418676, 0.0009465751092794937, 0.0030157763923814584, -0.0031774057064234873, -0.003151279219121053, -0.0024217801883015993, -0.003146270731916369, 0.004218760317058109, -0.0010937627973649727, -0.004267944813692082, -0.005689884829832924, 0.003765904389773778, -0.0017237862979011733, -0.001285289186624693, -0.001255702673852928, -0.0013606069370418793, -0.0014635013705049465, 0.006102930376111801, -0.001241889959598259, -0.0013486126195541796, -0.004194009054702741, 0.0013840992480211218, 0.00047646939493811014, -0.00857125140605114, -0.005835464746577885, -0.008492928921277336, -0.0009153808652926275, -0.009697316113111167, -0.004519425906896329, -0.005266741605687937, -0.008000738484195547, -0.038202818042603094, -0.04657803214325329, -0.05984905531859315, -0.07045929169873094, -0.03084834152544668, 0.0016810280265450773, 0.00010399156630911127, 0.0004967169862923866, 0.0028522977771883312, -0.0024354672399774925, -0.0012414530958626553, -0.004057229978864647, 6.192411622216403e-05, -0.002517669485213475, -0.0011512587611910254, 0.0012012029942246065, 0.007741372232128713, -0.0015642715165427703, -0.002905860672892351, 0.006533889551071618, 0.002353052624482452, 0.009338654379117838, 0.020129012318707215, -0.031031886601830243, -0.06580841565357452, -0.09766939112267939, -0.046954009649731836, -0.11625069379428946, -0.2012444464042719, -0.09388856343711524, -0.015123011769804469, -0.02329687110747692, -0.049309555953592515, 0.011921392482607823, 0.04196880906541264, 0.019783204848957608, 0.0020076114293215096, -0.004498254812080551, 0.009762292740446063, 0.0016963548061800923, -0.0004413065983406585, -0.00011390590624306505, -0.0005117714195643268, -0.0018927695696040214, 0.005900536458511704, 0.0023190596038147595, 0.006222572552270707, -0.001262002907504179, 0.0010234434027229706, 0.009837269312524951, 0.05952862131222208, -0.04789510965759116, 0.0540254397371488, 0.08479380262003679, -0.09872674244380775, -0.24022837591027993, -0.2910903731635251, -0.14351594016700667, 0.11048941065571748, -0.06284581073113465, -0.017601851556130498, 0.043738649014567345, 0.008582533978128934, 0.022957237621210196, 0.0038788853615437918, 0.014218650062436567, -0.012469560236774457, -0.009787083026488947, -0.0032596904199506337, -0.0019562493234160897, -0.0007782885606535108, 0.0015884022923279217, -0.001884862301754518, -0.006294246803390997, -0.004795721331320441, 0.059770920235599254, 0.10104370234110469, 0.08690918873194596, -0.12034496123818138, 0.07904804005633811, 0.06540091272798812, -0.13918289428116937, -0.22218623292219086, -0.3297162575004388, -0.1983162268425066, -0.12640092367483893, 0.11637767299805754, -0.06345202144175945, -0.17653790838355418, 0.01589696676665092, -0.11142385374068048, -0.04323854739151079, 0.09422554827579702, 0.07098981440566336, 0.04509167570089003, -0.013696521784120326, -0.020358977110637853, 1.8108006897502e-05, 0.0027587190766012026, 0.0027546180437378895, -0.007344969408285916, -0.05459012381228586, -0.038532830470058836, -0.027316731550818284, 0.019900927544450664, 0.17132980382925506, 0.053971604423384084, 0.13773255729476258, 0.12875317836713918, 0.08369330289856543, -0.11812905846439314, 0.05219332608802097, -0.027566039035298275, -0.12964819034578234, -0.01262706532647734, 0.15419757194370132, -0.05905420639439801, 0.009716291876516552, 0.13390532909182717, -0.08376258783366285, 0.0654138042799315, -0.08554542077487547, -0.016639624952958027, -0.02973250037019497, 0.003776094507182337, -0.0021488851715934214, -0.0015026593800673469, 0.007977117105612346, -0.048852937083995095, -0.08042523066260603, -0.023757621766422897, -0.07471223371479156, 0.04581688150672156, -0.009693681858528851, 0.02227741254035979, 0.04039479697454973, 0.017274828021233323, 0.0646861002033735, 0.06451918005474835, 0.04289474714907433, 0.008388846083521622, -0.2001176095672577, -0.007269671858860799, 0.2015134392427421, -0.07335495085916599, 0.15763555723949324, 0.08726085871208313, -0.12239798452725001, -0.18841085581070646, -0.10594213395094489, -0.026517159543068373, 0.020270432538235992, 0.03518187217383321, -0.003952297467884376, 0.0017463645466293577, -0.007687560977221691, -0.018853863754610525, 0.0011369541210823819, 0.1012099824307658, 0.02607919024178842, -0.044971495226436134, -0.07706098112822433, -0.011107832783981003, 0.11392058463630815, -0.10001822587824598, 0.09274583236345485, -0.0128697779145817, -0.2049434045448766, -0.22596296345737857, -0.08500105266334251, -0.01609377660661383, 0.34798243482087937, 0.2919778556094346, 0.1626069853330817, -0.032044227480123776, -0.012018690030652, -0.020260685873773648, -0.16327948741176027, -0.01839071234982257, 0.004136929049708809, -0.03189770348082708, -0.004795928998911509, -0.0018526751042087816, -0.00699026438123629, 0.018861239537784305, 0.040138547256024726, 0.04135688502428026, -0.05894459977004703, 0.07693713664239635, 0.13370180004806734, 0.13643690738234773, 0.261772261910585, 0.06122706116989743, 0.15808842814759208, 0.15205712289999138, -0.2701734886900647, -0.38050558492065, 0.11032351461780072, 0.3311152601340151, 0.38389370927588923, 0.09077931502350448, -0.07107095268817765, 0.08673651551171348, 0.011866541765268175, 0.08051335908270073, -0.14169922884653494, -0.015389215287379996, -0.02292529026735979, -0.02307439969215123, 0.025896240501554604, -0.001986826257636861, -0.0029197433375542777, -0.014066466483033988, 0.08272424811685995, -0.005397311791761566, -0.07405746144072212, -0.019720502142778384, -0.140187357664933, 0.0016053233515423509, 0.03461309581559752, 0.04443349456817292, 0.06895126688423237, -0.2283315551034484, -0.6742792218226992, -0.2595843734994199, 0.3481150272522689, 0.4230625935831524, 0.41399240605552706, 0.04062392166723241, 0.0034232342928809866, 0.0888429373471022, 0.15571508682436935, -0.012747696163251812, 0.03432871711923656, -0.02792742483791905, 0.0910601489299227, 0.021620153994238923, 0.00954820911405326, -0.004458580943969298, -0.002020616372781441, -0.026933776994726693, 0.003424129033478609, 0.020500612369887684, -0.002463572018341383, 0.01836607285801942, 0.020932117836163912, -0.01595727663107096, -0.11305036651608978, -0.24899427586980907, -0.4813709501029847, -0.7036558788952404, -0.36695336161754005, 0.21438968354901355, 0.298405402100669, 0.19007754483163064, 0.25565895790168897, 0.23546697835745517, 0.06745625400451423, 0.28868261207633467, 0.15665064440858917, 0.10576070918277969, -0.08897282998516848, -0.0544061506257161, 0.026064969347912758, 0.015658535387770425, 0.003236184605131734, -0.0021669627427424727, 0.000605306199318238, -0.010593152778323235, -0.06244123391018201, 0.04403711229085796, -0.0643150932499134, 0.010909401668103327, -0.06228980040430077, -0.21315383226622825, -0.20901650362423094, -0.06548785730116576, -0.4766684541386054, -0.33804614167378416, 0.15670090736698725, 0.3978551987978846, 0.2772775760753427, 0.18010643622773492, 0.004711877366884469, 0.16313640201759916, -0.06373664287225146, 0.1542811231723658, 0.13851924499148122, 0.08207704811622907, -0.009928578939885828, -0.09503084365716478, -0.002335949594128006, -0.0017177678820453736, 0.001527823265020854, 0.002094195801169278, 0.006204164693983958, -0.012346374265989645, -0.05656214376003335, -0.019240118588978204, -0.24275128447530273, -0.17195774369632397, 0.007271513353238777, -0.09012008509743029, -0.3582482850006746, -0.2285744042281196, -0.10690290080352494, 0.15321715579659081, 0.3761899273923018, 0.18969852429046843, 0.06279445613087817, 0.23014788002146294, 0.20830048715974236, 0.10677138120793052, 0.1421396381210091, 0.14741703555906738, 0.09360608328371918, -0.1883773633213447, -0.2175349732467872, -0.19011630995192333, -0.08987588111821143, -0.06075364879087239, 7.301471518628701e-05, 0.002666919451667762, 0.0004836511956324263, -0.010669066424891701, -0.021874516321526333, -0.012013810020770122, -0.2454541961664536, -0.14847415619616086, 0.04579561677173082, 0.07618306547700596, 0.13841532423290756, -0.009378226639620723, 0.019018798057018914, 0.18786173475390755, 0.05668950108046407, 0.08559653781525893, 0.31090689146414424, 0.1891991219657484, 0.20837710862205205, 0.1694729956160107, -0.03484262862522307, 0.04964793139954306, -0.13885567506829252, -0.27563559227765316, -0.2600168838311852, -0.20257793202121735, -0.09847370558934664, -0.04244427849302135, -0.002450237591884548, 0.007499105838384162, 0.009458216507344852, 0.005702821264534147, 0.006626182175737048, -0.006909475468222624, -0.12329244658291863, -0.21859624373800166, -0.1785277023890835, -0.08334342622880113, 0.05702479232812113, 0.15158282281309915, 0.19381492032309072, 0.10098470791258002, 0.25902881100865977, 0.3632971959373303, 0.2534506077670415, 0.12233433907893154, 0.09842019073817698, 0.06156126047662718, -0.018240222917857648, -0.12152836895492602, -0.09958624247216512, -0.15569807490424253, -0.13180843454760535, -0.12857311809754057, -0.12500920230858714, -0.0034431324288333, -0.0036398566559868134, -0.0011783550200628124, 0.003348370559539751, 0.03144203949426243, 0.030078579527087874, -0.005251989492412455, -0.07469474253349709, -0.24970127461828467, -0.22549651622796385, -0.18961930334956217, 0.047953299623832386, 0.05185191999158321, 0.15104657724049753, 0.2689239727150575, 0.24718074273296622, 0.2742184242256079, 0.2805911099528386, 0.11778017381452296, 0.17064013789079363, 0.1327924088353092, 0.01321193038610803, -0.19296661627558104, -0.0153109834448969, -0.15986751941415608, -0.04535520992591703, -0.053789517364381305, -0.09705357847671947, -0.06098573490429874, -0.004463316328554033, 0.005301232620811483, 0.00844174247222512, 0.040790149730914396, 0.051486300983128584, -0.04250581511317196, -0.22033920139542879, -0.5583225650950749, -0.5384239579830977, -0.6185959666496307, -0.44237713335683965, -0.3271337822374315, -0.10542160826411613, 0.04297739628565338, 0.09248200432315323, 0.17325419951917195, 0.10908450753817657, -0.043776085851559086, -0.12589997992119623, -0.02759709642966507, -0.03141498537024769, -0.21265345056945772, -0.00973945599837193, -0.09774084074639265, -0.005829691830236458, -0.13425506217530428, -0.057478984009941905, -0.027914104513039172, -0.0077295113826083995, 0.004079657648119672, 0.001775102624063774, 0.030916123511879508, 0.08161838855734273, -0.051446233901221224, -0.2751370741583186, -0.5671743811601463, -0.711967411799245, -0.9231721592612484, -0.9398414118161376, -0.8027549865671176, -0.235876289891186, -0.19067026679881657, -0.06137187876620533, -0.16871887220100454, -0.028425019505856772, -0.15389299712171864, -0.3095498589195404, -0.11719050814639101, -0.20909454926294585, -0.14425682318364347, 0.07889025940210763, 0.006471158131567062, -0.10055182310822049, -0.21535373388387768, -0.04029525115086903, -0.002374203120539128, 0.0026671949543066622, -0.003716736860829176, -0.002374648500638604, 0.005147055530046761, 0.14900192621606625, 0.1310237610550891, -0.07477705860933924, -0.21031036415831728, -0.25027758273509826, -0.4848659859898437, -0.6745559419608711, -0.800878689838279, -0.7408320330227427, -0.6486365505865787, -0.27665559359619313, -0.26156516021530635, -0.05565841160590182, -0.19021651246574972, -0.18691212972849985, -0.12538518122458192, -0.163844746010726, -0.0767503664620656, -0.0138033067681503, -0.025761749332442668, -0.22298504645374811, -0.19786788403783845, 0.021736017776186778, -0.005615122981447013, 0.0003066144634351771, -0.0012241852636490562, -0.006166227181144701, -0.008716268762586217, 0.12172849570124838, 0.2477744782930031, 0.05313755710430707, 0.046886168331030174, -0.08126471623471121, -0.06163474418503521, -0.04291923925117654, -0.10091458927528742, -0.34721216283282114, -0.5246512372993979, -0.3452685030948079, -0.17519870187233577, -0.36923851462078017, -0.2856529137937031, -0.0035727945216396844, 0.05985193360111261, -0.08359088658599609, -0.19542560692434133, 0.07918651625460003, 0.0938104806673983, -0.136789117640247, -0.09185239125764955, -0.020203467929336638, -0.0037220397213379433, -0.0009392176199348048, -0.00048136052480363275, 0.0030036331441555025, 0.004869533058200066, 0.09229194356971575, 0.2075304205624066, 0.18565351959802068, 0.1959110220662677, 0.16482930573458413, 0.21155279172220173, 0.16269353007301746, 0.4313068422311178, 0.026295458426193834, 0.001987374188603459, 0.023773447195897343, -0.13414256310438918, -0.22565587843321114, -0.10051965872219278, -0.019063090203848984, 0.03776506478669875, -0.08798336333570236, 0.01580239726838256, 0.14194663802237714, -0.04781827366681607, -0.22068220764423294, -0.13378393681222442, -0.03042172906060103, -0.002636217664260053, -0.0019752007518382985, 0.0038163737446828857, -0.0028759991049356333, -0.004364709151695203, 0.0008409162815462413, 0.10353136879606561, 0.2291115207139282, 0.19370783908421105, 0.05251443277893701, 0.14396049112683548, 0.021007305062447513, 0.13373713324525147, 0.22152485030809785, 0.05122785192121847, -0.07266547825769193, -0.17877649824611958, -0.10352810492921564, -0.13917968270721587, 0.09220440610226958, -0.03624331037071354, 0.030705394964372447, 0.06924332630080487, 0.061052787372205874, -0.11770123012157346, -0.20144085607412673, -0.10018724833078242, -0.019913426540409698, -0.0015392707561985347, -0.0004004909081262485, 0.00426746867702486, -0.001428044476362807, 0.007902672981615406, 0.030031896941432344, 0.02195731737765668, 0.15638140286299018, 0.05369967994766479, 0.11337960985249185, 0.05427103707942255, -0.20959908065562127, -0.02175947928456388, -0.01856041437719742, -0.113720814944402, 0.038736421663251544, -0.16150801778215532, -0.3186496237039788, -0.38479637345962453, -0.08383415421560281, 0.003063634309237308, -0.09629582741404173, -0.03321022825162997, -0.07442070014370755, -0.16297765274847587, -0.06584210152285948, -0.016482148400792672, -0.002677201601404289, -0.0015768931031378876, -0.0016018436703885551, 0.0034154388979363683, -0.005410213098815954, 0.014527954255941191, 0.06619732599957172, 0.11799427399142412, 0.2073485973334911, 0.21095223778928873, 0.19513194473881432, 0.1062881326879263, -0.01873825137825112, 0.2053163565073144, 0.08917034658352992, -0.14482726795662135, -0.033754746978093005, -0.2272390570373179, -0.4422416313784694, -0.2050682190772846, -0.10008384017724062, -0.16699251980308152, -0.24296242754412, -0.026839466075311826, 0.030119783205578215, -0.010566190351920466, 0.030591743349547104, -0.028732436328490325, -0.0025166538543126425, 0.0015092214492999699, -0.001366348832471362, 0.003887948280473297, -0.002344012978764118, 0.0010857036727502242, -0.003558653307690186, 0.049034139413594996, 0.1925580963654085, 0.17284756423756176, 0.18402383228590974, 0.2692090062878998, 0.25780581319193197, 0.2877841800507744, 0.07597423981342864, 0.20329245131567694, 0.09440980957462113, -0.20153795173427363, -0.31015271583882315, -0.06871382199866263, -0.16944450039351716, -0.19258524497295798, -0.05135231995583806, 0.031003083522811496, -0.012141455651521532, -0.020702024285044647, -0.04252592530455873, -0.021261500039692745, -0.0019939598746534855, -0.0042351191784370515, 0.0014693586968242054, 0.0038519788623638503, -0.004454943417399846, 0.0005756255497398523, 0.0012381072589720977, 0.016717291264262208, 0.09825256797628239, 0.1442039760745782, 0.06892267398276562, 0.027199290249176382, 0.0509094300455668, 0.18972533160357954, 0.11602523835671394, -0.001522896344182728, -0.031727866261780126, 0.08150174681638438, -0.0010935549451320666, 0.016807617578257123, -0.053374544272665775, -0.07387922402976903, -0.0513491177521043, -0.008650319354473834, 0.020381914335641804, 0.01041064924401934, 0.006009837383698472, -0.0012576535597096272, -0.003080943027637911, 0.0009672798050596197, -8.377110681891546e-05, 0.0016858334728824403, 0.00323686626393731, 0.0032419138828001575, -0.003281628488493282, -4.820368478015655e-05, -0.0065748453917305666, 0.0063383763053193164, 0.01098047335085422, 0.007777733446056525, -0.005821187328230119, -0.010035765189640784, -0.0003755488953140761, -0.004050137092710536, -0.011842821423072417, 0.01403644636101512, 0.0034416595522538925, -0.011390591933630368, -0.012666621245230467, 0.0016690978344669862, 1.3779318930133362e-05, -0.0016636033223035272, 0.00029713020022238907, 0.004964441548906744, -0.0036394659601037874, 0.0074429929323295285, 0.005065996857754881, 0.0006263394799643522, -0.0015819862270757862], [-0.005443858165840984, 0.002286660598191922, -0.0010632266114363432, -0.001762281415202203, -0.002303806002696141, 0.0011814555772972732, 0.003194713921043948, -0.005154802062437195, -0.00018625511625078154, -0.0071479756808329, 7.797214545083891e-06, -0.002385000128089855, 0.004238456216076107, 0.005115124263837955, 0.00535316900572909, 0.0007041907565774993, 0.002804767922478311, 0.0035231535991209805, -0.0037154733553353913, -0.0020162957646958873, 0.001968539213995416, -0.004871287029816728, -0.0036415456302829586, 0.004526171748296257, -0.003352835781818471, -0.002874623258988561, 0.0012510194355312178, 0.005641848599795173, -0.0004445388623005207, 0.0012651877144440723, -0.003861688474835768, 0.0022757775704738163, -0.0010523879110028046, -0.007111307112614491, 0.0032627966685111896, 0.010358254827812597, 0.004487362055755967, 0.0015888149858293203, 0.0048285951523973575, 0.004268799613625324, 0.01715707343743346, 0.00854870666577247, -0.004163448510066613, 0.011295354048038081, 0.01217636103288547, 0.005342032216244599, -0.0018369282425242921, 0.002853991736855362, -0.0018312706782721495, -0.0017464712185893594, 0.005441277336553155, 0.001765161900091944, 0.0025900700268680393, -0.0020564460579118454, -0.0008226601767341464, 0.004102272417178595, -0.0011555498760354571, 0.00021663503339633064, -0.00039364960643455745, -0.002816888020617402, 0.0019296792657089756, 0.0034198056895981682, 0.0036467246168577824, 0.015385771623339341, 0.015439374664156534, 0.025013300681838088, 0.05474568667681484, 0.05385584641750455, 0.07497851471496364, 0.06512454188586989, 0.066430294046004, 0.0587062227744465, 0.06922911673845684, 0.04977263184463985, -0.0035311777912713513, -0.00527215798631487, -0.006095952091633423, -0.006583877799261414, 0.005053623341613917, 0.005327394064510668, -0.0031779469271328025, -0.0015789373350842647, -0.0020364533884778516, 0.0027776943802467298, 0.005934285891318805, 0.0016388341236292857, -0.0009808248208457377, -0.004980939977432652, 0.0017494886072777797, 0.008367106004548567, 0.033494975825234176, 0.05616575668281672, 0.07626988246971941, 0.10842738844496591, 0.14353145389520683, 0.17718983168717098, 0.20435312268762257, 0.22225293574137656, 0.1853625162138599, 0.03610602045651337, 0.08426289998297333, 0.08716438789061288, -0.07439050716195464, -0.06344244442631793, 0.010207203899498125, -0.018298969909827892, -0.034180463921121895, -0.008268036224163479, 0.020486192956150246, 0.002059132383302486, 0.010997763635448281, 0.006792052101723369, -0.004365514255936779, 0.0027250646706851677, -0.00019093309751479638, 0.00010049111007251294, -0.002464969849042, 0.017769828147555428, 0.0587160768456388, 0.1371895724663311, 0.16340087476244883, 0.1995865141814908, 0.18523265830744085, 0.07500591691696691, 0.17780153041535207, 0.19830480975538803, 0.17583158995755963, 0.07080205808261394, -0.06513028834107015, -0.024343887127126877, -0.022378908744912853, -0.10063674567372105, 0.012986751696478007, -0.09784003990548558, -0.09913795031593299, -0.0698326587117803, -0.05254442854405769, 0.0015781594552661698, 0.00737551009818013, 0.009657029461539693, -0.002995804051494835, 0.0009538737415490774, -0.0006120822968363248, -0.008663470606826077, 0.02126984905350311, -0.04191291457489205, -0.025487279646782452, -0.09131572522206972, -0.08303730911838118, -0.06638920487056144, 0.06794611278791625, -0.08049591413729656, -0.15256093406355928, 0.04280335754129742, 0.12686888594914694, 0.18580843737615244, 0.09234148024895666, 0.06605847352158753, 0.06755167546831167, 0.10138413686744949, 0.0587723542357185, 0.001795824296603039, -0.1115588509210399, -0.07084732247139403, -0.05916804357893528, 0.014539615025257966, 0.03506745426295968, 0.01835487199005386, -0.003157536647551061, 0.0020742819501320914, -0.005810554112902402, -0.0314623220571244, -0.0050522783039587795, -0.13577547600537138, -0.16019934541533595, -0.13843618862718912, -0.32747957725790455, -0.23897426479302214, -0.3175706109728068, -0.13933029848904652, -0.19540257789765791, -0.222263037632992, -0.05795729718742459, -0.08959820297727294, 0.041978772172498166, -0.08204443169957895, -0.16751081082420133, -0.15368489834974075, -0.2288362605418709, -0.04344159078004006, -0.056320297752935435, -0.10860246095634761, -0.02605566699502238, 0.011382923446157902, 0.00503120333401547, 0.010690696560046066, 0.001734036868508289, -0.0033296721687292373, -0.02072942389882157, -0.06848705764118386, -0.03392654229801975, -0.06633941707880621, -0.010464471790970412, -0.14908682197443562, -0.053430385981050856, -0.14324978835459107, -0.3338203301174548, -0.05253620220400648, -0.09575394645947397, -0.030937356967884792, 0.1565018529936417, 0.04783860388860731, -0.07620149131513096, -0.15555447530780925, -0.20106484019765491, -0.23675248059635176, -0.1817881826872491, -0.044479671921233636, -0.17098913194331228, -0.1848856170248067, -0.10010962351377818, -0.05108464730225468, -0.021509326350792182, 0.010374400255236222, 0.0020919719301358526, -0.00012169754260716586, -0.011862518086443173, -0.0764450858202481, -0.1293571421973755, -0.10517588352260514, -0.14337338413709547, -0.15868920499847794, -0.174220489680015, -0.14926896789643557, -0.12297386999943401, -0.08233614826824918, -0.016613691013686403, 0.10815729258500015, 0.12315418676349912, -0.23666784437706664, -0.1097157078539419, -0.06487188356849996, -0.18843233919290775, -0.18399774487974427, -0.04873114807755896, -0.027247284778876488, -0.3115509857172582, -0.20099254298035935, -0.11052166082275672, -0.036076356532909644, -0.019024163234053617, -0.001994924699208714, -0.0035824266762415347, -0.010399623756309147, -0.029701924586033553, -0.05939459157067837, -0.12217144224172387, -0.1366730504157338, -0.09105347220922991, -0.05250609889803187, -0.16786767733073815, -0.10805168370989988, -0.07368994524986967, -0.1328417815701261, -0.15486731688271127, -0.07564262378743507, -0.0535383623650144, 0.1807437564222703, 0.0015142206051250728, -0.06183000233690291, 0.16765762897439232, -0.06673511413824942, 0.02110625124345393, -0.06429304722426997, -0.3563175649770058, -0.1846028034828152, -0.04247041370659964, -0.026388722842152504, -0.02350242874033541, -0.007584039194933695, 0.0014982707813746415, -0.005126842500434196, -0.033912160604804224, -0.03140173631394822, -0.14766947099587915, -0.05852751869043633, -0.015281303988639765, -0.08172353707632819, -0.16742107721618354, -0.14180072392668427, -0.19766595763467182, 0.033521758241200676, 0.08338438491516897, 0.10386660849067386, 0.28348828013243293, 0.2776758338792627, 0.006907983609096803, -0.09088000453148778, -0.034872983617822734, -0.12178889055501123, -0.07955798773585225, -0.16673275350017241, -0.2646232207362785, -0.13825845824510802, -0.07599240805531192, -0.032276021019050874, 0.00046384673920940334, -0.0034606265928090536, -0.0006798621463811949, -0.009787589558953305, -0.028140401672330853, -0.049456571439531236, -0.14094935685389845, -0.06114882128362952, -0.10985415696870589, -0.20474364573758982, -0.1803162630797916, -0.3239858869322816, -0.16695346359154406, -0.048991624227015924, -0.08941717632655918, -0.16020534380783613, 0.08265586726027158, 0.1656246184443329, -0.20197578509655897, -0.08989807356966602, -0.07993628587597065, 0.08345151122960148, -0.12992842966392132, -0.06840758850917233, -0.10992642971769157, -0.17319153417156893, -0.11367592455579058, -0.07175065641210705, -0.0848483963578257, -0.008321404772599097, -0.0019964014644879725, -0.01223420677902552, -0.02744409734023489, -0.08231862662474362, -0.13459637162230154, -0.13102078498139239, -0.20992243941663913, -0.17031664063051644, -0.054892362604467934, -0.17174915670632152, -0.16179539862667078, -0.1599767850668636, -0.09632147359484644, -0.3990989715568553, -0.05026285943776937, -0.09205426594562513, -0.24846174711093272, -0.2179857312079587, -0.1893572599741314, -0.021918545744969525, -0.056277612149251685, -0.08091494192556849, -0.09797409778191589, -0.08177477894774465, 0.0038718769455003896, -0.008516401437014478, -0.047453874700230006, -0.007157460022347432, -0.0025675442078802757, -0.0033489939042698606, -0.028749381991577425, -0.04087933866180595, -0.1769303619718052, -0.14483794047552018, -0.1724446649136495, -0.1834988923043176, -0.12481049643636881, -0.3265305186574611, -0.14221847205408264, -0.27944567136113757, -0.17650528542194618, -0.17544003610356532, 0.07114318313851183, -0.14707995912327346, -0.13704700574089823, -0.2124515238821176, -0.19673842180538886, -0.02993535157993544, -0.06321402160401306, -0.05168093536558878, -0.07631879835297152, 0.10748272034440566, 0.021416098839098993, -0.007998908910702858, -0.00438472026894262, 0.011104611283285853, -0.002499980396643086, -0.006216586322951458, -0.0063213487508497, 0.005568207683822066, -0.024998028186629263, -0.1414395078701591, -0.09978733987382034, -0.19281439381607196, -0.28760469367034347, -0.11204794727420202, -0.09134641511642687, -0.1306205871794287, -0.23056853888082784, -0.05652409865030985, -0.06595328031026246, -0.016140358886994357, -0.15887483985304526, -0.26184596514176645, 0.03171679328611086, -0.05079111149771551, 0.08407224095622177, 0.00048143834466575795, 0.1024955049062679, 0.11105357162706148, 0.07622812084696722, 0.04760569554386861, 0.019940829309233382, 0.00499969319357182, 0.004243980280680346, 0.003140291522785023, -0.0007992447075718292, -0.007691342314483831, 0.09012876252115436, 0.13092797776576093, 0.05415003404063155, -0.0342873571979866, -0.11462053424676633, -0.06497513066131057, -0.03743030199625605, -0.15107052152215925, -0.047749184223620685, 0.011542466781899971, -0.11097075760331793, -0.15302810386982482, -0.2676051115185425, -0.1733471754715622, -0.017183351684159562, 0.1679528571619569, 0.09144222199208944, 0.06705585013696744, 0.04119841398079495, 0.09474779909575416, 0.14222576248571708, 0.1195724592613127, 0.034035153334508315, 0.012023577559712095, -0.001628474341657299, -9.654362472944878e-05, 0.006019413349790371, 0.026207346998089763, 0.09592368988368158, 0.21463057218793527, 0.24741775150827214, 0.0768281492865104, -0.20275606809592053, -0.14036765021942377, -0.20659514655630581, -0.08668432335569498, -0.3382674299104204, -0.24250158811127145, -0.04098497641195436, -0.15323486850439616, -0.21786463772535822, 0.026555694053455026, 0.14503033277022762, 0.23450531433292773, 0.24690908931252564, 0.2574765448690198, 0.23597946269110046, 0.20002012392251445, 0.21236967633613282, 0.16809917722822892, 0.08282408421878258, 0.015144224238025718, -0.00133261373897296, 0.006978980209802828, -0.006821838887044722, 0.03938756460490124, 0.12957945412770966, 0.23438337534833967, 0.26212350083938263, 0.05726926168500735, 0.11557273776849207, -0.04780611908657131, -0.0036140199215201024, -0.12436345045675354, -0.27070384600942476, -0.19429013498971737, -0.08954826440904991, 0.04820088310378921, 0.14972696556357004, 0.2330054051352195, 0.19414033291658114, 0.18453600593215055, 0.09793940023555284, 0.05206608365888524, 0.062471450875487125, 0.028997459842464293, -0.010607177110705353, 0.12301155078914912, 0.014084121315290847, 0.010887211456754088, -0.0002490381821989749, 0.001344609349233176, -0.015566462993975724, 0.05987206771727653, 0.13307915347578725, 0.17741795169781246, 0.1907511932871284, 0.07163924089140754, 0.2239571389723403, 0.2178946111565097, 0.31821965953732295, 0.11120749646005171, 0.23516809855040538, 0.1932815978559465, 0.3000757117192825, 0.26859876868782895, 0.1452317437300011, 0.1773199059237393, 0.26491322109815363, 0.1709217778751375, -0.03355562910562802, 0.2250577724372767, 0.1802394222314482, 0.23632971171390987, 0.21965332633769383, 0.10921339044789206, -0.001735947118313726, 0.012531043469507147, 0.0023919996204673725, -0.0007210239112989707, -0.007479015608263571, 0.03570174437913052, 0.05734494540789246, 0.10551517217309257, 0.16340785884660117, 0.17855869181367176, 0.17767059641268973, 0.17310729624488974, 0.40242069674094144, 0.4069073111259684, 0.39441645725991115, 0.37753800437540186, 0.4690899917633582, 0.20545296326115187, 0.0705626628909107, 0.07475785549742923, 0.240304666717665, 0.19348364254208103, 0.14438993593293745, 0.21107241126321885, 0.2954438876207981, 0.31020090169799763, 0.16469659397700623, 0.05872487451791793, 0.029654279245014282, -0.0020039246037633954, -0.0014885809738479539, 0.0024582419206666093, -0.0037423150305697416, 0.0519666749988739, 0.1450143835840436, 0.14555232232240733, 0.2289370743314173, 0.278580619042146, 0.3615896213119057, 0.3970482921476552, 0.28081591601666356, 0.3042359296293244, 0.3665666332539958, 0.2710672922385988, 0.31114611837607997, 0.09458348992144096, 0.2564858752591271, 0.1536119009666182, 0.42917102027363735, 0.2256342775298179, 0.1430233350081903, 0.15456843216370428, 0.1603958460483398, 0.26203226607521907, 0.11579442988281152, 0.0640382544239496, 0.017906360567254496, -1.530504965248527e-05, 0.004430183478103098, 0.006358725871700007, -0.00506170146572257, 0.06653475441429568, 0.09567085054395132, -0.01796374517533861, 0.07462289215890798, 0.20293027272337588, 0.2765778004446333, 0.21951724200362824, 0.3574796216823678, 0.18862512390446642, 0.24447112415949654, 0.2688665823974272, 0.2874989607069956, 0.2453182700880444, 0.24098314241974203, 0.17150070039828702, 0.2054610247686926, 0.14819499021743393, 0.0061328447507671795, -0.020803857266204834, 0.23455616211378744, 0.2502764947712502, 0.06963684265258434, 0.03578641487555052, 0.00011219366210748746, 0.005091761700145967, 0.0013571598069690534, -0.0028517870911872576, 0.00606689349669918, 0.0665379303224598, 0.04939606085056781, -0.006492839879455208, -0.05740757099608823, -0.081791792378014, -0.04061932814766577, 0.14169505649724418, 0.22217176902161154, 0.05316478495398178, 0.13322452332746818, 0.007812493160876885, -0.051555541664476644, -0.020118947520304693, 0.15681964865596157, 0.034576021071692234, -0.05041287505188685, -0.02721235681326364, -0.07282900119049468, 0.013550992456059893, 0.18134010737787873, 0.17774493323634288, 0.06461113215208124, 0.03582112638901352, -0.008839713257905304, -0.0028481116033424857, 0.0021135229205155124, 0.0016124768189368685, 0.01500643111775593, 0.034961800161951655, 0.03833178561342747, 0.04855176204111418, -0.045784557924379625, -0.1956249325544243, -0.07151402026186962, -0.11435669960905308, 0.02751067142831825, -0.032607199589652636, -0.07555961806563856, -0.0777394088680398, -0.35357286504343466, -0.3195744300079174, -0.14048849662181082, -0.14205280383660232, -0.07873180631448876, -0.0060276403830182845, -0.03302573860521717, 0.07552078474962248, 0.19619164110863707, 0.15212691047590043, 0.07857385151920915, 0.032595015003512286, 0.0007791241365312415, 0.002217321352586424, 0.0007586657189634885, -0.005058631674038084, 0.00034872631401979145, -0.013519437427650249, -0.04728355071361294, -0.11274858922020976, -0.1401175124857034, -0.21171967393665828, -0.2160875433715842, -0.16581105246359834, -0.4107277006048375, -0.3579664298135018, -0.40138187234664036, -0.42998212417860165, -0.4616189731258791, -0.3892693612317055, -0.27093749653239874, -0.22855839969991748, 0.03861238067377575, -0.006107316158431316, 0.010134665328968359, 0.018036144612587953, 0.07884609399658077, 0.06493721308798281, 0.049216030392085, 0.017944525833339338, -0.00322808880489997, -0.0032653354245444728, -0.0014099091696112424, 0.004390984119426837, 0.006014729963303123, -0.012233840628295361, -0.01170594166990966, 0.03768289700827381, -0.029438501020295275, -0.15422097726707754, -0.2590349960305325, -0.3635402787080527, -0.38719740648233697, -0.2814967281587425, -0.31311762937224985, -0.2345257738808624, -0.2902303056688884, -0.22113451264474768, -0.14917467272672563, -0.1592655910196277, -0.06770321575840817, -0.013761454150745353, -0.036355642542512966, -0.11407954790727412, -0.04029975778343586, -0.0024490060672625134, 0.0003096295809492543, 0.0008938012390509748, -0.0019155294259990804, -0.0006471147797537386, -0.002098577755923322, 0.0017648265456330528, -0.008681803478868117, -0.0031619982057437077, 0.021108488533089515, 0.10248582780050781, 0.09009870490778178, -0.02254098605511285, -0.06060758027027542, -0.09551248845329816, -0.045176600224227995, -0.004682101126109309, -0.015321030024484886, -0.030319040738406838, -0.03409500428707985, -0.05395188212306585, -0.05395893788674576, -0.08855659588758044, -0.06830728655253131, -0.032256662548543556, -0.027504883768628544, -0.017528763572911988, -0.00783416981837535, -0.002115911720525911, -0.000962860116439411, 0.0013621951146097087, -0.0011603024757720136, -0.0012717324646799586, 0.002037880068116552, -0.0014321807389986894, 0.0009528851372746253, -0.0018844274180575288, -0.0008270925576729617, -0.003191084628240269, 0.004407674617206199, -0.00046828291799419855, -0.004477507354979091, -0.0005797519192938694, -0.012178951997104016, -0.005916296302003079, -0.006774610971640037, -0.0039886654278182745, -0.004144153094260401, -0.010203919273670486, -0.01529428567689369, -0.017720165294717833, -0.009206409343047733, -0.009009411519790728, -0.015425619744012018, -0.012913578018801754, -0.01916895753829861, -0.006243268815026731, -0.002100028485713111, -0.004318303943790433, -0.0032354663852292727, 0.0026118984290058383], [-0.001084572478958672, 0.0001849686139389832, 0.0021021512609952354, -0.0016896888490828264, -0.002379431327204227, 0.00016340257478267062, -0.001123995087637635, 0.005365080594632572, -0.005606650800726914, 0.0014881226590622166, -0.005848796716555363, 0.00013561722018309386, -0.0003496198260850983, -0.005513278243490373, -0.0038742355882519686, -0.0007974700452033236, -0.001902504395257639, 0.0014200214860190746, 8.507775329488954e-06, 0.0016509811662597912, 0.000580696266804588, -0.003256243571110259, 0.0003844593539250862, 0.0024060459534159797, 0.0006842942603122463, 0.00035864870219653344, -0.004749956823760458, -0.006660480740264996, -0.0024737696342718787, -0.0026976100918822805, 0.002388625312987159, 0.0005431491235567105, 0.0020777857040291843, 0.002240915886248146, 0.0030646027825566432, 0.0016572562083485764, -0.0013982481958933603, 0.00012385572672388845, -0.001999153705093909, -0.003094429546397811, -0.008572294401019781, 0.0010185144661729005, 0.001331079792832374, -0.0014647859595943338, -0.003448498030247212, -0.009642854259685084, -0.00117916143516507, -0.0027101895005793046, -0.00020177871768999603, 0.0024231018967705766, -0.001122098027453029, 0.0004845243445155292, 0.0034749385697652115, -0.0028913793956669696, -0.003772561208228798, -0.0018002725942712564, 0.0009955879522540393, -0.0014805764692233214, -0.0027922899779547865, 0.00011664545970638569, -0.0027925938327631873, -0.00621450224971882, -0.00010536935052536984, -0.007308693190529341, -0.012740798746910408, -0.0320080598392381, -0.034203093861603924, -0.04301518520048335, -0.045302111596773484, -0.03200789328617192, -0.060808226717510475, 0.005386857325927242, -0.011827285832234694, -0.04510076421649595, 0.021799698022593336, 0.0018033208949512862, 0.004445332965601848, -0.007013473937389091, 0.008317645161374888, 0.004840694763330039, -0.0005736008336292652, -0.00043156480216051824, 0.007253715232255355, -0.004752431931791364, 0.0049317121376627445, 0.003648309062227794, 0.002235654965962309, -0.007897787285835447, 0.0005415007114666387, 0.004012003860481646, 0.008304239457159817, 0.014836331953289426, 0.00900141121041698, -0.08117386795348995, -0.11460443325338587, -0.14060100273862747, -0.08873752878230222, -0.018154153423055586, -0.06000631786960956, -0.07682915035827809, -0.09472834864029359, -0.0982533307157379, 0.029862787374883227, -0.052625968544539936, -0.0008745995384547293, -0.007761391514760245, 0.030719417356480264, 0.06211483539127134, 0.02744954070771834, 0.01237812207167537, -0.015744045998875827, 0.005284358258030855, -0.002845148220909811, -0.005234162803085003, 0.007814825479112292, 0.008278061575719614, 0.0049353634625653895, 0.027568110660651082, 0.05650060771879511, 0.06626034396782836, 0.009531183247999035, -0.07696647934973481, -0.04465704416286472, 0.09014339045117481, 0.05525299965470991, 0.0093299379091244, -0.025621968844053312, 0.10017024585636017, 0.05603748173421826, -0.027416126056744185, 0.16230839316252932, 0.24324146768335203, 0.20102368635562426, 0.14602471127178268, 0.12947856961713064, 0.017570445718618634, 0.06521660689179047, 0.012263375515456209, -0.0017357152483251494, -0.005183473675177332, -0.0035092256510294365, 0.0008084128385808001, 0.0021149916038369874, 0.006576120062562128, -0.012881337880806027, 0.04431209459731369, 0.06713892010254863, 0.03229021418143832, -0.02362247771000775, 0.029627445220495378, -0.020563729050281, 0.21372918817710626, 0.20475637149480588, 0.13884506120908488, 0.03227640698263144, 0.03462270321724802, 0.23413865289624222, 0.169192877775251, -0.10584049807708844, 0.01896622585892788, 0.09565514650167087, 0.02540654487279204, 0.13722346980036804, 0.01963976583949592, 0.04132106004704541, 0.0392712755383007, -0.016347558926962602, -0.00796357854129162, -0.0011788835072974607, 0.002374493115598222, 0.0002896445234109509, -0.020058141567628744, -0.029484675226992746, 0.053536902991685426, 0.07202079531524826, 0.050988471831887136, 0.09997302857942202, 0.12835800463773053, 0.1946952344645506, 0.1406861760161842, 0.042662830146292505, 0.09907740917702065, 0.016682100243628463, -0.10339822710234935, -0.08958514640720865, 0.04202362800227644, -0.10085083919107819, -0.07800636654505701, 0.01765596698235638, -0.06683349873841285, 0.01515142007297906, 0.09391828784910176, 0.05157582861762331, 0.02197230524718636, 0.02848839159572725, -0.010620477052996635, -0.0016837194488056656, -0.0024286474355670103, -0.009416060739565087, -0.01675255894948554, -0.019687822738906294, 0.05776507761204061, 0.11198417536178797, 0.18209913638197212, 0.18636315114053303, 0.13667636642616773, 0.2062817153882499, 0.004349512045827078, 0.05094080133490602, 0.17035902453665103, 0.12980691468696512, 0.11019065723299933, 0.1388003168292758, 0.07873736799959376, -0.0991890272800685, 0.14024149695353605, 0.23122521255092834, 0.0043371681954850125, -0.13678798433870804, 0.050042659426674484, 0.04092820406394032, 0.021431564517997742, 0.029744184165417714, -0.008320178006604848, 0.001857462936437473, -0.006026718532784022, -0.013007209749924498, 0.001092059731286069, -0.02104668722632966, 0.04661490159157522, 0.0817767174373734, 0.16081790854892827, 0.11166537835033959, 0.1582991205630734, 0.2656974795617412, 0.14229760681818024, 0.06427727172919387, 0.21457279136074067, 0.04782222629024671, 0.21186039894761718, -0.05984701311498551, 0.023478316682546255, 0.19409322815572178, 0.09538108772686137, 0.04718307707439754, 0.021027740718148037, 0.12092236870119082, 0.14223100966159088, 0.12164358501432347, 0.06914247428904371, 0.04974968005606951, 0.01098417034151061, 0.0020192356871579996, 0.0031090773614188935, -0.00391369830075343, 0.025372384091429136, 0.0311008583314342, 0.039568938765624596, 0.1090267879622158, 0.10377593755268803, 0.27569451876054657, 0.14069569383209107, 0.04961082432557288, 0.04800366875579243, -0.03916600333983487, 0.11208616375318067, 0.10229238468302283, -0.04388470957356429, -0.08961083151599444, -0.08896490741546495, -0.02182970355856472, 0.056192067991927934, -0.06999888847952022, 0.13444914924941662, 0.26492889039486905, 0.16897899112041262, 0.15712156920383094, 0.1570820011994567, 0.09446392805780805, -0.006970496427268124, -0.0014385011317236977, -0.001397488625080197, -0.0013311314079740507, 0.017552298715758384, 0.07837004715275975, 0.008100098446401144, -0.01047262805901667, 0.20511320109866754, 0.278702736341669, 0.17482935367571395, 0.15780393486773783, 0.00861444986097062, 0.03642095763277154, 0.1431830801561696, 0.2256697037986826, 0.05937286034012596, -0.07112992894447141, -0.1262472131003582, -0.08376946971704159, 0.10608025377870184, 0.0668182684604258, 0.024579467083007126, 0.19308636400033255, 0.12800543689038515, 0.12210111249836068, 0.16968860772704852, 0.06262719906163033, 0.009452677201305453, -0.0025899588062946147, 0.0003056570199916042, 0.008500026848894067, 0.06608170024521567, 0.09159991094151872, -0.015133919744272481, -0.09496470186397744, 0.20049424641555025, 0.09585674856124257, 0.09410508152508576, 0.02319984977167383, 0.18111912586894047, 0.22214009452177613, 0.07439994516191213, 0.47055659569748015, 0.4260532318688093, 0.08278969640078084, 0.10544917070582377, -0.022748192036249778, -0.11616021673086178, -0.04516167741473843, -0.05762249692344399, 0.02328493182499424, 0.1123227332273052, 0.19008122356443005, 0.14239795149752763, 0.0993278276259208, 0.012549042601569319, 0.0026500372601703536, 0.004318633042974994, 0.021438690190450395, 0.09335973228504839, 0.10729187275619619, 0.09151296391870989, -0.11413414788498423, 0.07387320872493146, 0.0449075243815985, 0.03863101992199099, 0.20104857252669442, 0.16510981915322256, 0.13711655941931652, 0.1881812476418408, 0.37163494571934014, 0.4030108406856065, 0.2878901618564882, 0.14411015749515657, 0.01913986346025318, -0.10409209190030286, 0.06773968804723189, 0.01934433110488547, -0.023858277887155718, 0.020980277612401774, -0.04437200321978336, 0.022342871342431254, 0.03926635009210024, 0.004516975632622849, 0.005358823365932051, 0.004074063850485076, 0.014421268338622088, 0.07685809166843088, 0.10979997677450355, 0.00071159182529604, -0.16131628725418087, -0.16387346538950145, 0.13886961725335656, 0.3203424358874514, 0.061249366523691895, 0.21462201993843985, 0.12792882406983577, 0.19524075321041373, 0.4227284592158726, 0.5108857272802242, 0.5070485769050063, 0.17813870239231566, 0.0848143903995529, 0.02252692268246273, 0.2357907582709728, 0.012675308756275564, -0.1644862026662706, -0.25012278818560313, -0.10842520525165121, -0.00827567877298331, -0.004495509279082333, -0.006601304580191035, -0.0007330176400674766, 0.007263768545941556, 0.015713952959475124, 0.01742761432010853, 0.06711813677607363, -0.09389198105239943, -0.4266771724417409, -0.4577761357533676, -0.09097760719639597, -0.04742900481411781, 0.11732455533809531, 0.08569991883315731, 0.1302007891222283, 0.26832134617430387, 0.34505982784486544, 0.30538564516954025, 0.3560510817434103, 0.23971177408137173, 0.08593175706769113, 0.010581361775890523, -0.1373270435029983, 0.047402283866205805, -0.20389189728325274, -0.2255286318108476, -0.1382423800867329, -0.03913409663161497, -0.005320450845150173, 0.004072751706567288, 0.0010856246778592087, 0.007091257405462312, 0.01935944544643278, -0.0023192517700075933, 0.014408228445490072, -0.2832591337365797, -0.5427322283427322, -0.5874872168517596, -0.5295688815306505, -0.4301298312725648, -0.12503370067156283, 0.1394892788548367, 0.09450728837909501, 0.2608315497176875, 0.17664298747984924, 0.15219488905419068, 0.2543991636733743, 0.013619814205871076, 0.07082843739682566, -0.1647016014947076, -0.17288126122324823, -0.10845964505742682, -0.02592184576994549, -0.10043393953913943, -0.1149945289552853, -0.02903748387043529, -0.015405583085670931, -0.009583542104504822, -0.0005221438101368678, 0.004091673686296634, 0.011320357872576693, -0.014262729194386656, -0.01728122291152272, -0.2804906283238239, -0.3949888619224486, -0.49364359013767656, -0.48877657791502555, -0.5379054206007283, -0.4898647667298699, -0.4521438384626004, -0.10341510823912935, 0.05612522504503816, 0.011854524154731547, 0.19995385259414178, -5.006301508562277e-06, -0.2829982907352322, -0.25840354325485476, -0.24506363671238737, -0.309699587259675, -0.15065452990115913, -0.017755625803035528, -0.041977742921563393, -0.06895175475190056, -0.04883388554749781, -0.038555096342467, -0.017102843829576206, -0.0026190007581657834, 0.0010269585050529007, 0.005444968077228478, -0.013613243907468677, 0.02896083212256336, -0.16103651184092918, -0.15037045366931706, -0.23670684390382551, -0.38852983713800754, -0.36312942523274216, -0.7723861600252999, -0.749020216636444, -0.4119828928345501, -0.17307693274453692, -0.06510030138375705, 0.04082471926176531, -0.0864987087311505, -0.29331009086846593, -0.3743627773915863, -0.22443236606758626, -0.22526268036138541, 0.0042967828325834005, -0.08178577401418173, 0.09400402602689006, -0.0012572368561958819, -0.07364780271014788, -0.006714888648500077, -0.005199734362797396, 0.002527714218085982, 0.003010727310944606, 0.006105898449806787, -0.005685778118716313, 0.029459490855208898, 0.0049943942427599355, 0.05687130431497968, -0.08725867342071947, -0.1517689326830142, -0.16468572541635917, -0.23401210580681517, -0.2337593498843956, -0.42555146477290035, -0.215085161274144, -0.03879110892284403, -0.1841390264722868, -0.14947226201579653, -0.18964595002888193, -0.17769946028547157, -0.053122156209327275, 0.03992152558742749, -0.01664215254549573, -0.09633396952623886, 0.024531459798272114, -0.026947413539267093, -0.05375222770335971, -0.01093463524658258, -0.006461652365778379, 0.005303843139974671, -0.0015436125869906013, -0.012612678907087102, -0.059728147136006736, -0.014887100574049081, 0.05560995216379294, 0.14568904636722077, -0.04891474252595881, 0.017267065388107142, 0.03020347064269796, -0.05725971723647459, -0.3148774200735889, -0.3090763231154291, -0.18445367297014145, -0.14939003084493377, -0.2049109728615804, -0.0850487693929402, -0.09388274976932452, -0.23519769753055508, -0.010183066582136694, -0.06945456573781902, 0.03335015772394367, -0.1357688500357567, -0.030560788575325844, 0.04198818711308783, -0.010944829949039265, -0.01737920891321381, -0.0020930759442094756, -0.0032218706539557094, 0.0009957704334806995, -0.010885592783027835, -0.07996745675658194, -0.04230150816410767, -0.08057363389127452, 0.1264242410199985, -0.001940731880285571, 0.055838496528189834, -0.08955138212146506, -0.10872359802216884, -0.18157637582325997, -0.0662350335859927, -0.0979659543434197, -0.2485712749126578, -0.15524157395271287, -0.2417732834356348, -0.14257143393769883, -0.12941800245493254, -0.12782179323663548, -0.20606278779774312, -0.17328619166689288, -0.08949418837982824, -0.11022917978560239, -0.030904394714831328, -0.02567510585023314, -0.011546918107390228, 0.004493625654059447, -0.004428408619067279, 0.0009170449680108116, -0.01313433421691726, -0.07994826225914006, 0.0017826533274004647, -0.022456204005009976, 0.054660930179855884, 0.10103123635621436, 0.04777118499287764, -0.020920011672603375, -0.04452700175379348, 0.014793958419031515, 0.026880733632707925, -0.11859621687862132, -0.20894924273949717, -0.12403988755344408, -0.2255514656979286, -0.09763868736682726, -0.025107039858976592, -0.29539341478207864, -0.22801226462236898, -0.1773058006695441, -0.18556735811669567, -0.1561671793234161, -0.058770049971885736, -0.012316320701026583, -0.005611457325567376, -0.004067702765193243, 0.0006999821272891107, -0.0015696276152515544, -0.011837231623656932, -0.012255809753480604, 0.0027902984919709354, 0.021882967431497844, 0.021764619939789044, 0.08981142603808973, 0.031378305783977975, -0.00018646433307782024, -0.020681963225722216, -0.06391986361851403, -0.10856051681556603, -0.06551168099585908, 0.03711217871419919, -0.018743966423339406, -0.1222255182979415, 0.03738588046987328, -0.0806600754607101, -0.18252929170212037, -0.25117907358066516, -0.27551422419010485, -0.09991553725057424, -0.112668939278975, -0.0632216801806345, -0.03547806963339212, -0.004736560327042361, 0.0077705076787269395, -0.0006256477977202485, 0.002524651725012477, -0.004494432682317685, 0.02045163868592277, 0.0785473726050733, -0.012083828592425594, -0.13832021770031416, -0.041990281773101934, -0.033798405901509, -0.03089311717731988, 0.009899998645288644, -0.033249915798991864, -0.09961699941841873, 0.03167800369080177, -0.019159729464349965, -0.024550196655100855, 0.12780588947204455, 0.14021754277572837, 0.010110118453014258, -0.12787825431624658, -0.20596321871376536, -0.14132815797320553, -0.08725239866939045, -0.06808838100168582, -0.06236195737069771, -0.02994045099107125, -0.002539226526463861, 0.00266033608636311, -0.0031338805699460516, -0.0018681336662217615, 0.0054958506264203314, 0.03251436575856774, 0.05196559123254207, 0.0553224562219197, -0.00108951815708914, 0.038101954521306, 0.08992969145856582, 0.013344756034272673, 0.18939094319164068, 0.1807224089514392, 0.007868774922491634, 0.054294711127274166, -0.12661678291692469, -0.13367850399174735, 0.07577405680259834, 0.06372019017134482, 0.015785894511512865, 0.13401585283392786, -0.0017811090512246514, -0.021372954657921214, -0.07355623701787052, -0.029486497025760578, -0.018895943883378497, -0.0055322799936091075, -0.0017359598896697298, -0.006011496650839354, 0.0004123214319755836, 0.004760815401295296, 1.9339598989152914e-05, 4.681530628260985e-05, 0.00736820603564146, -0.01144724737538454, 0.05614773866340558, 0.15558355394344714, 0.2122923333570984, 0.2721789145926256, 0.3451001419401576, 0.228928885156385, 0.24205405085209822, 0.2635949751402998, 0.16923228294056536, 0.21730539030994264, 0.25745484834899884, 0.21878807547581003, 0.15447554585820095, 0.1461961997349841, 0.01913369018498801, -0.0011703080026935684, -0.012075848870136883, 0.012947373926069943, 0.01102457762588281, -0.0007937662221120548, -0.007530429810591475, 0.0024206772482382563, -0.00397674969363582, -5.156268520714952e-05, -0.001472988900263938, 0.00024422191583734534, -0.009387768534695, -0.06519368615785096, -0.06424809824620734, 0.0182594088921059, 0.044814843091694125, 0.12192902745963971, 0.09874514407676671, 0.07399242112695573, 0.026515033218282195, 0.07518657110796415, 0.055597556415487005, 0.04811845463542475, 0.05528385390268609, 0.047733500193149134, 0.03472428237636768, 0.046012969947329146, -0.034581663306149826, -0.031357447677441586, -0.0027418298370175597, 0.003488391235260608, 0.003989550352700445, -0.0016980326623846666, -0.004598076044653593, -0.002385312272375528, -0.0020476021649931467, 0.003825237312386754, -0.001520373995977601, -0.0036455253542443024, -0.0011108753841435218, 0.005621440025791668, -0.0026203211160868854, -0.001265846823293559, 0.002964333311195185, 0.003152887542303246, 0.0019932426499200597, 0.00457081581700857, -0.009481358526841269, 0.0006355700574411429, -0.0012677968980194683, 0.0014010417438615752, 0.005120011646953254, 0.003373145592164814, -0.02425715463204985, -0.010789853244786223, -0.007689402049723652, 0.003160879960930404, 0.010135714896645711, -0.0029472335735159874, 0.0013987318257084724, -0.0033236377607963044, -0.00025031662613224023, 0.0035350626000185503], [-0.00635387442162292, 4.267851108563744e-05, -0.002415392710181871, -0.0034116236453910864, 0.001844026020557679, -0.0046199292978370355, 0.0010920955191303608, 0.002724411434911267, 0.004515478748278919, -0.0014809093739356436, -0.0033709027339717344, 0.0007609991893181947, 0.0030523798481861394, 0.00279195540036346, 0.0016947129728780656, 0.0013087235633406611, -0.00034138188495842835, 0.0038773370927152376, -0.0029763846226664318, 0.0028636877480750166, -0.0031227167167675153, 0.0007347396139347088, 0.001960919356390673, 0.002334974775361434, 0.003352086121105428, -0.0030015341194120464, -0.0004223018637596224, 0.001438170249304762, 0.004869059136982434, 0.002889766007453961, -0.00230667914084691, 0.0019301122916978895, -0.0031725382329535496, -0.0041311934652780045, -0.0016202459161271498, 0.002686493601365081, -0.012579163556885396, -0.0033324862908126985, -0.0037418668699415454, -0.009130777931966504, -0.01546091767961562, -0.0014405752793642686, -0.016485116767044082, -0.021415920344851166, 0.0048099268232511105, -0.0010612799776095856, -0.004289602982150363, -0.004795169284961409, -0.004374505886367115, -0.006417497082678858, 0.00042489685457806567, 0.0029817322880477913, -0.0024255443283217938, 0.0004458593429318355, -0.0026147715230174996, -0.0034672729829104756, -0.00013194191905547517, 0.0014576605572431305, 0.00042349149311961335, 0.004254503799163904, -0.001678420050000909, -0.0005983108160956418, -0.0063676044510889455, -0.0074243904226292375, -0.008067716323524139, -0.015046090971277648, -0.035665570180368596, -0.053756030639544525, -0.030334161898121208, -0.07325110181889355, -0.042446368487538626, -0.051826788183798884, -0.051045246317570375, -0.03611946029741771, -0.03400512593945328, -0.055021332141755516, -0.05033979956599961, -0.04607425739461143, -0.036678860571320374, -0.01030561931497582, -0.0003369469468293593, 0.003734185337051996, -0.002043212330362582, 0.002121303234456497, 0.004246381391901597, -0.0026773440591816968, 0.0041620205653023715, 0.0004648137662543725, 0.0015476475066829064, -0.013817399590017439, -0.028215050439672082, -0.020697506135460043, -0.028713172978847776, -0.057070478380169674, 0.00992363779256909, 0.06280107895078577, 0.12846665476565608, 0.13716512061489455, 0.08695431504372512, 0.02772020953674114, 0.09905141127745233, -0.03831518661532314, -0.16210565777784738, -0.1978379982624778, -0.09870724425283707, -0.13854608187368883, -0.15618066853724927, -0.0606244249467096, -0.0007759987247950115, 0.031391251126076006, 0.0023521557866459557, 0.00558515145672113, -0.004561830132527508, -0.0005718709923961295, 0.0011631207910741568, 0.003951445120553755, -0.014869301842689303, -0.018287276932243846, 0.02336018067738362, 0.00900008836159295, -0.0359074256869515, 0.06421728442148875, 0.12442359056619645, 0.1899039539454576, 0.2891840884760417, 0.11677935698226762, 0.11688832447465701, 0.03096997676827659, -0.0059830743412643585, 0.106950299512908, 0.1321201838751297, 0.0020856332143653557, -0.04103155053613869, -0.09671951941224433, -0.13173408633899292, -0.07683762541974105, 0.10459913523758359, 0.05100593083039022, 0.00030244953812260127, -0.005914904608494016, -0.0027611478782895342, -0.00048635935033675663, -0.0008879381702516083, 0.008580027695633253, -0.020073810020041775, -0.011416717745050351, 0.02588847777507469, 0.009792314229701152, 0.10439481614889828, 0.1914678338967438, 0.18589532321311547, 0.24784062528727302, 0.2301481968369698, 0.2114580295239027, 0.15471039541779802, 0.009345560664301852, 0.23796020652195593, 0.14209696349398582, 0.07997663217976328, 0.07769627525689234, 0.11994397026566238, -0.046985060983018724, -0.008175308574036953, -0.07370277464940794, -0.05843574821032588, 0.04530186441382915, -0.006640596192862056, -0.01383693648441979, -0.0023649442428375013, -0.0006238156029087119, 0.0029396461874508263, 0.009467769625625167, -0.0017406442052671682, 0.04478290858567603, 0.10534634865352531, 0.09999561532626633, 0.27277850509794604, 0.37742503099886937, 0.31844995756333433, 0.3287168813804166, 0.30703790530943686, 0.38222512561438926, 0.20514443980842603, 0.2591370787559392, 0.2720044290078756, 0.17204328747986902, 0.054504896478717035, 0.07970783512274097, 0.06494580386189466, 0.04974437981059164, 0.05652327778526326, 0.0008700593596844881, -0.021436421997372532, 0.02222848827493887, 0.04687502265018578, -0.0007669077225639892, 0.008852742622734942, 0.00672744602625205, 0.009731934352985333, 0.02467532073131441, 0.04253123362394001, 0.11092652473821456, 0.23260623958611723, 0.27144513845488794, 0.33676822006385276, 0.3830314373748724, 0.23227426911742935, 0.152713896112176, 0.10755036860585199, 0.11325689958548109, -0.1532831957276882, 0.1960863879625008, 0.1362542694220656, 0.1885650103664125, 0.22424038761972245, 0.1638203986631745, 0.02522632638065137, 0.08631179608411071, 0.05641745955830288, 0.036072022621364074, 0.024227184446684265, 0.08182434241706135, 0.05226851187798199, 0.0011455800014935865, 0.011003561542256669, 0.0011607949805027798, 0.0007837132924097131, 0.012534796297912003, 0.06676746587719314, 0.17313850377066806, 0.2924342341494668, 0.25627310367229933, 0.24084251404336104, 0.5002021901197697, 0.30858427579195197, 0.20157836381670452, 0.20961631394346877, 0.060779167039942475, 0.036256185941746864, 0.46112872295172397, 0.44526813889492733, 0.34896710627915045, 0.3173776610812944, 0.18096298930822602, 0.3771597379834593, 0.31346980344948516, 0.28581340051366544, 0.2647125063545475, 0.12497508417062646, 0.05989937211477671, 0.030456958324665714, 0.010483658797119468, 0.0023677394872050387, 0.0036659063550689105, 0.004658856162809572, 0.02081898565778617, 0.13077871213760958, 0.23984807894238294, 0.3444500024952905, 0.15963441307211018, 0.235826128017661, 0.23495999414142826, 0.10701737070620214, 0.12983712491224678, 0.2630637397942125, 0.16229568803097086, 0.02152116184861485, 0.1414315361187509, 0.16801981038188357, 0.3419745321898401, 0.11009743750567448, 0.1598512147037331, 0.3452869107045445, 0.3436677907272255, 0.30544230104780723, 0.4437956674355535, 0.1910941823173073, 0.08769197813040386, 0.06280192635190353, -0.001694590718155817, -0.00020860567582324985, 0.00021369870008307976, 0.011435725987022338, 0.018916949857694054, 0.15175411345558038, 0.29530274596521966, 0.25310062851982107, 0.0878452744728931, 0.10625123099559322, 0.06364914407183404, -0.12142347765810459, -0.08669183825094737, -0.09558423754720556, -0.024910716470934072, -0.15246443747846095, -0.2453041493145883, -0.012493388092998641, 0.20746032251490454, 0.055739644576903995, 0.12657906176534361, 0.1970774379360309, 0.07888828499223165, 0.26656921683121526, 0.28373155318094345, 0.18552606895296914, 0.06588812036682881, 0.030962343960896165, -0.001224034302947446, -0.002597561940646005, 0.011558376256150039, 0.0036763763272741816, 0.028902051401433437, 0.12881442146102287, 0.15491801003028044, 0.06706707574991036, -0.0824099005445649, -0.11195357309219311, -0.17760244995827024, -0.24425783243890822, -0.25067528778061837, -0.07915197069021622, -0.19316828506613484, -0.24042628165262717, -0.22348850085313057, -0.17135699800973697, 0.08329277569887346, -0.028123898584559274, -0.039692041706954166, -0.049076283384778194, -0.0942690000352422, -0.019149409073371784, 0.140500143261807, 0.1364998592724782, 0.05971086539868789, 0.06601582638965021, -0.0022903571329762084, 0.0023081713540184655, -0.0015325547577612639, -0.0036252636708156752, 0.018583463923090668, 0.012817744226193799, 0.0702063832392714, -0.1586417329660779, -0.2467068318694885, -0.29228793923068763, -0.2758813750311199, -0.11568425227334855, -0.22512362480415352, -0.048185504193896986, 0.02344277237181517, -0.2521131230725317, -0.22420121131164145, -0.25674481288431583, 0.09317465484534193, 0.12109371928727068, 0.2632881465085177, 0.14156496574293814, 0.027217188601304933, 0.07535554932975298, 0.057423897437656496, 0.037819092156838985, 0.006064020159814639, 0.04184379776970914, 0.004843803543326355, -0.0019890039477269018, 0.0038256372251070617, 0.003502505350714865, 0.011498742697132323, -0.0602909113802654, 0.0002622546547611971, -0.28702036727941793, -0.4023495058753767, -0.3851603805656777, -0.35253890736265636, -0.24029271303322294, -0.040494286352973044, -0.1285172155988154, -0.12348590354737211, -0.30958824255726863, -0.1690384871273087, -0.1915462826584055, 0.11495600553379225, 0.19670014264528338, 0.10739182474383883, 0.06921993651038276, 0.10030230035138774, 0.21283061484632926, 0.07317664720503037, -0.00915955147037734, -0.008248396957412684, 0.032808961511456076, 0.0038226469458647705, 0.0037337831226844026, 0.005508740262741217, 0.000721657366957348, -0.0031389519936625035, -0.020773184807745974, -0.12883306719591409, -0.3327670410943802, -0.4674151931502961, -0.4620208666557465, -0.4927252151958694, -0.37279134072045184, -0.22333803265065155, -0.08087279247146728, -0.07885852297597284, 0.007924842293366818, 0.014614304168590555, -0.2525207762234859, -0.036139446268794236, -0.023023358359913676, 0.08591827086257271, -0.08729399059474434, -0.03431429433779532, -0.043685785451524344, 0.08370217661295674, 0.0672855539180847, -0.045901205153902176, 0.02031041786822975, 0.0001774518386784281, -0.0034229773425696573, 0.0064984072700814376, -0.007678933347355837, 0.029768620880144647, 0.04445191973106256, -0.1612715689394636, -0.32713853658389425, -0.4319814523798965, -0.5788430005751629, -0.3350022312517609, -0.313436586880112, -0.32419082292005524, -0.2049103380387763, -0.35454409048700675, -0.2687822705614958, -0.022702590236582675, -0.18068847223577514, -0.03902158354819022, 0.09094249752114282, -0.006474859666003187, -0.0323527483136371, -0.031281323410993676, -0.12297160335085906, -0.09050678299971553, 0.046364570443431105, -0.0487493567008849, 0.030470826018409464, 0.006944472766499109, -0.003040457482400524, 2.3392076895272392e-05, 6.786340099359075e-05, 0.05203296274266465, 0.07882187818068825, -0.02286272659767046, -0.20400067780964515, -0.4256580895803509, -0.49607222957524144, -0.3469040879896989, -0.26288992502946856, -0.36215965374990766, -0.18531382146302572, -0.2956354110996977, -0.2620723987108583, -0.0921043725144105, -0.15585951330487724, 0.2872593714050783, 0.025241349150507308, 0.03141882753801688, 0.11871934137680952, -0.032058607135859805, -0.07871587287347012, -0.13325628361048752, -0.05365441723004047, -0.03615848839203107, 0.04126518868048599, 0.025807395551769002, -0.0011672256860419089, 0.0037438735703661493, 0.01766662382522394, 0.03897603177844254, 0.13510465468505425, 0.18032028621154592, 0.07287027144588856, -0.2449851100404824, -0.2928978045694046, -0.2644436123599176, -0.3629783779277172, -0.1800189956470406, -0.34638781922549605, -0.35012813620148403, -0.42276410903333056, -0.18925980952896373, 0.0031429604777254636, 0.29265831446219503, -0.013211834469591755, 0.058840783641752846, 0.017517629213302355, -0.09719224999256167, -0.12615368837136645, -0.02379292803370877, 0.031648028255722646, 0.0023533682256650476, 0.03747396880273827, 0.0033907487885330057, -0.004705728289374643, 0.0017598117902352084, 0.008320042295707274, 0.024031825993395962, 0.13680361524216048, 0.23702855193922417, 0.284760388477166, 0.13671308698139978, 0.0655757703782428, -0.16478932983814956, -0.12238724896511259, -0.07745677921034443, -0.3319729313077319, -0.36095546835426207, -0.14569998002569398, -0.014786203312215697, 0.0018889031970179529, -0.10355146626977185, -0.008078879803274909, 0.1448250917370118, 0.025972524672262645, 0.018653461044026102, 0.11505717087125648, 0.15528288456500788, 0.145001692778745, 0.008989912068693835, 0.02076657913774847, -0.0035811999141738904, -0.0012406964685211274, -0.0005783781354248832, 0.009315488514870105, 0.002541119645224083, 0.10103042195009461, 0.17967088895216196, 0.16120246597251703, 0.25032086105564616, 0.32907907429074107, 0.04114241023397319, 0.07735043119640235, 0.05392450842893507, 0.014005894722032468, 0.09257323227223495, 0.28295442886966854, 0.24495057989035637, 0.06629706232766788, 0.1724936530522489, 0.20036839392791708, 0.17766654431655365, 0.226696103769914, 0.1907739594563255, 0.12549805310941042, 0.15724646439910414, 0.06853774685161682, -0.0033130405940477543, 0.005500871011532303, 0.0028995692337420347, 0.0011750233447054873, 0.006649203703213416, 0.005398578768316098, 0.021845455888436817, 0.043845100403451964, 0.10281207538110622, 0.14174409137395247, 0.34961202182592743, 0.44785210626457905, 0.05377082502631863, 0.328531108509211, 0.39503522220635195, 0.15677410046969462, 0.27883031836441924, 0.024386639910878524, 0.22870390001398674, -0.09303452841606608, 0.06226025040736581, 0.0011564730422308652, 0.06593890233960008, 0.10863826657696064, 0.14428721935782307, 0.07233156334610895, 0.1611852343165356, -0.021686870729300298, -0.016496068239010387, 0.0011699565532418132, 0.00031892190882262176, -0.004013395990665112, -0.0012758500822170928, 0.002497718939039555, 0.02863004402219723, 0.07368944360313927, 0.15693800561887, 0.25569022287054216, 0.4106303427699807, 0.2780286633174914, 0.053214325895969715, 0.05880956492075448, 0.15921168113401105, -0.11615721390343123, -0.04295839308783528, -0.06825531307887592, 0.22082449011723002, 0.12084348925135839, 0.024522561045984645, -0.0372924619442038, 0.02165571299367376, -0.03650738944922799, 0.09743356101594196, 0.07688447956586096, 0.07459466333472743, -0.02035374590146157, 0.00962467062431681, 0.010920624737146074, -0.0009352627463996106, -0.004287544816740173, 0.0071698209380850475, -0.0034212484409805763, 0.009421885263979501, 0.017068825491263345, 0.04476063208421794, 0.14794598734390102, 0.23499524636301097, 0.11555845601950226, 0.04952386264561156, 0.07384589789412921, 0.140032201082034, 0.10960623663650558, 0.16064376554360543, 0.09264259064785395, 0.12033691812171672, 0.0116006942471195, 0.012256807896009343, -0.05136290948732722, -0.008169341682137551, 